tree
version=v4
num_class=1
num_tree_per_iteration=1
label_index=0
max_feature_idx=9
objective=regression
feature_names=ventilation_time hydragogue HCO3 ALB SCR intraoperative_hemorrhage gender platelet_rich_plasma CRP Myocardial_vascularization_time
feature_infos=[6.5:2949] [0:2] [12:34.700000000000003] [10.6:47.5] [37.700000000000003:807.10000000000002] [100:6500] [0:1] [0:1220] [3.9399999999999999:294.11000000000001] [46:254]
tree_sizes=1272 1303 1307 1314 1311 1311 1313 1323 1320 1312 1328 1147 1309 1083 1068 1250 1308 1165 992 997 1334 1328 1245 1075 1327 909 908 1247 1327 1164 1328 1256 1328 1084 1254 1252 914 1258 659 1168 920 656 1330 1251 1337 828 1002 743 1084 1254 659 1155 1172 830 744 1333 1157 747 661 913 1087 1174 659 664 1337 1332 1335 748 1337 913 1000 1332 1339 1002 1341 920 660 998 927 1002 659 1340 1339 1322 826 833 1337 998 1079 922 661 1177 830 1080 1171 1177 831 1334 917 1088 998 922 750 837 833 668 750 912 838 831 1087 745 1262 838 1341 667 924 751 836 915 750 755 1338 748 912 830 837 754 1009 1341 1169 835 751 913 1345 1001 1002 1343 1100 1333 1180 1090 1178 836 829 837 746 1349 991 750 901 913 1343 1004 1096 1004 1094 1339 1351 1179 1092 1087 664 1087 1008 916 832 835 839 1082 839 1350 1094 831 920 1020 927 1087 1097 1094 1250 823 1020 747 1099 920 996 1186 922 1182 1249 1015 1352 1280 1095 1349 1005 1005 1091 836 1014 747 1349 1005 746 1095 749 1007 1350 917 1274 1350 751 744 1013 999 1263 1005 926 1011 1265 1098 1355 1096 830 916 828 1009 752 1171 921 750 1274 1337 1349 1273 1100 832 1356 1185 1355 1099 918 1272 923 1016 1354 752 1348 1097 1008 1100 1020 745 1351 1269 1350 836 763 835 1101 938 844 923 849 749 1168 1097 1094 926 1271 1187 922 833 669 930 1357 834 1358 1183 750 836 920 839 1012 838 1343 912

Tree=0
num_leaves=14
num_cat=0
split_feature=0 1 0 8 1 4 0 4 0 5 4 4 8
split_gain=18.6834 8.84057 2.99712 2.84033 2.20559 1.41193 1.25808 1.45541 0.789063 0.271613 0.357721 0.641026 0.167742
threshold=59.750000000000007 1.5000000000000002 308.75000000000006 58.590000000000011 1.0000000180025095e-35 210.65000000000001 92.500000000000014 114.05000000000001 145.75000000000003 1900.0000000000002 115.25000000000001 138.45000000000002 39.120000000000012
decision_type=2 2 2 2 2 2 2 2 2 2 2 2 2
left_child=5 2 3 -2 -5 9 -3 -8 -9 10 12 -12 -1
right_child=1 6 -4 4 -6 -7 7 8 -10 -11 11 -13 -14
leaf_value=0.2764641636085185 0.26846416384693705 0.30596416272934995 0.31386956789915593 0.2796269542119344 0.30204440975974794 0.29307954772872608 0.30846416265484417 0.34179749499476675 0.32431321878627906 0.28126416346546734 0.28692570175827881 0.27154108683216072 0.26846416384693705
leaf_weight=20 35 32 37 43 81 26 28 24 53 25 26 52 104
leaf_count=20 35 32 37 43 81 26 28 24 53 25 26 52 104
internal_value=0.291809 0.30426 0.293362 0.28859 0.294271 0.275421 0.319851 0.324083 0.329763 0.273398 0.272425 0.276669 0.269754
internal_weight=0 333 196 159 124 253 137 105 77 227 202 78 124
internal_count=586 333 196 159 124 253 137 105 77 227 202 78 124
is_linear=0
shrinkage=1


Tree=1
num_leaves=14
num_cat=0
split_feature=0 1 2 0 8 3 9 3 4 9 4 3 3
split_gain=15.8136 7.48266 2.66587 2.67403 2.77305 1.2158 2.27604 3.42448 1.19506 0.609557 0.501329 0.246215 0.498812
threshold=59.750000000000007 1.5000000000000002 24.250000000000004 287.75000000000006 60.815000000000005 25.650000000000002 124.50000000000001 33.050000000000004 210.65000000000001 98.500000000000014 114.05000000000001 28.050000000000004 26.550000000000004
decision_type=2 2 2 2 2 2 2 2 2 2 2 2 2
left_child=8 2 3 4 -2 10 7 -7 11 -4 -3 12 -1
right_child=1 5 9 -5 -6 6 -8 -9 -10 -11 -12 -13 -14
leaf_value=-0.016881846234768252 -0.021511481266755325 0.02490381876627604 -0.023098407554626468 0.028286834081013998 0.0082252550666982484 -0.0059968590013908616 0.038884018567892226 0.035328617095947264 0.0011690202126136192 -0.005762480011692753 0.04045731875631544 -0.019275859265815553 -0.0030099684851510183
leaf_weight=79 26 21 25 30 88 33 26 21 26 27 36 127 21
leaf_count=79 26 21 25 30 88 33 26 21 26 27 36 127 21
internal_value=0 0.011455 0.00142899 0.00703562 0.00144319 0.0257988 0.0194374 0.0100742 -0.0150771 -0.0140971 0.0347271 -0.0169379 -0.0139688
internal_weight=0 333 196 144 114 137 80 54 253 52 57 227 100
internal_count=586 333 196 144 114 137 80 54 253 52 57 227 100
is_linear=0
shrinkage=0.08


Tree=2
num_leaves=14
num_cat=0
split_feature=0 1 0 2 4 3 9 3 4 4 9 5 4
split_gain=13.3847 6.33332 2.38833 1.82311 2.71846 1.02906 1.92644 2.89848 1.0115 0.424325 0.236526 0.230296 0.296202
threshold=59.750000000000007 1.5000000000000002 444.50000000000006 24.250000000000004 145.15000000000003 25.650000000000002 124.50000000000001 33.050000000000004 210.65000000000001 114.05000000000001 102.50000000000001 1900.0000000000002 91.250000000000014
decision_type=2 2 2 2 2 2 2 2 2 2 2 2 2
left_child=8 2 3 4 -2 9 7 -7 11 -3 -5 12 -1
right_child=1 5 -4 10 -6 6 -8 -9 -10 -11 -12 -13 -14
leaf_value=-0.020185202621832127 -0.0028244969160249917 0.022911512965247748 0.026807504040854319 -0.02101684534031412 0.02575233918649179 -0.0055171096686160923 0.035773296814698437 0.032502327419462657 0.0010754981407752405 0.037220732635921905 -0.0096639040112495422 -0.0083397742271423339 -0.01394696201880773
leaf_weight=82 101 21 21 23 27 33 26 21 26 36 24 25 120
leaf_count=82 101 21 21 23 27 33 26 21 26 36 24 25 120
internal_value=0 0.0105386 0.00131467 -0.00174447 0.00320343 0.0237349 0.0178824 0.00926823 -0.013871 0.0319489 -0.0152196 -0.0155829 -0.0164793
internal_weight=0 333 196 175 128 137 80 54 253 57 47 227 202
internal_count=586 333 196 175 128 137 80 54 253 57 47 227 202
is_linear=0
shrinkage=0.08


Tree=3
num_leaves=14
num_cat=0
split_feature=0 1 0 2 4 4 3 3 4 2 3 3 1
split_gain=11.3288 5.36053 2.02148 1.54308 2.30091 1.01427 1.45423 2.08353 0.856131 0.602475 0.201591 0.421374 0.302402
threshold=59.750000000000007 1.5000000000000002 444.50000000000006 24.250000000000004 145.15000000000003 296.75000000000006 26.150000000000002 33.050000000000004 210.65000000000001 21.350000000000005 28.050000000000004 26.550000000000004 1.5000000000000002
decision_type=2 2 2 2 2 2 2 2 2 2 2 2 2
left_child=8 2 3 4 -2 6 9 -8 10 -3 11 12 -1
right_child=1 5 -4 -5 -6 -7 7 -9 -10 -11 -12 -13 -14
leaf_value=-0.017793739404318467 -0.0025985374899193791 0.017880546424699866 0.024662904739379883 -0.014002030758147543 0.023692151528817637 0.036772283514340719 -0.0029115814321181354 0.028264692037001899 0.00098945929453923159 0.034747345664284446 -0.016451751547535573 -0.0015773116406940281 -0.007260268422273489
leaf_weight=53 101 23 21 47 27 24 34 23 26 33 127 21 26
leaf_count=53 101 23 21 47 27 24 34 23 26 33 127 21 26
internal_value=0 0.00969551 0.0012095 -0.00160491 0.00294715 0.0218361 0.0186638 0.00966832 -0.0127613 0.0278199 -0.0143363 -0.0116496 -0.014327
internal_weight=0 333 196 175 128 137 113 57 253 56 227 100 79
internal_count=586 333 196 175 128 137 113 57 253 56 227 100 79
is_linear=0
shrinkage=0.08


Tree=4
num_leaves=14
num_cat=0
split_feature=0 1 0 8 4 3 3 4 8 3 1 5 4
split_gain=9.64763 5.43622 1.90702 1.57707 1.5675 1.86664 2.71252 1.19068 0.542446 0.241043 0.286472 0.450756 0.188355
threshold=45.500000000000007 1.5000000000000002 308.75000000000006 58.590000000000011 320.95000000000005 28.050000000000004 33.050000000000004 129.25000000000003 108.57000000000001 33.95000000000001 1.5000000000000002 1150.0000000000002 144.65000000000003
decision_type=2 2 2 2 2 2 2 2 2 2 2 2 2
left_child=9 2 3 -2 5 8 -7 -5 -3 10 12 -12 -1
right_child=1 4 -4 7 -6 6 -8 -9 -10 -11 11 -13 -14
leaf_value=-0.012069735729948003 -0.017049349376133508 0.028445571533271242 0.016465803416999613 -0.0046851329620067892 0.040056048347836451 -0.012772877348793879 0.024190738052129745 0.01099526382507162 0.013097067892551422 -0.018077740907669067 -0.015694309294223784 3.0577267919267923e-05 -0.019444848052386582
leaf_weight=94 42 56 37 91 21 27 24 47 20 50 20 28 29
leaf_count=94 42 56 37 91 21 27 24 47 20 50 20 28 29
internal_value=0 0.00798732 -7.56113e-05 -0.00347579 0.0198093 0.0164614 0.00462177 0.000655292 0.0244065 -0.0131917 -0.0117631 -0.00652146 -0.0138086
internal_weight=0 365 217 180 148 127 51 138 76 221 171 48 123
internal_count=586 365 217 180 148 127 51 138 76 221 171 48 123
is_linear=0
shrinkage=0.08


Tree=5
num_leaves=14
num_cat=0
split_feature=0 1 0 4 4 3 3 8 8 3 1 5 2
split_gain=8.16576 4.60122 1.67025 1.50046 1.32673 1.57992 2.29588 0.895226 0.459126 0.204019 0.24247 0.38152 0.164627
threshold=45.500000000000007 1.5000000000000002 444.50000000000006 191.00000000000003 320.95000000000005 28.050000000000004 33.050000000000004 58.590000000000011 108.57000000000001 33.95000000000001 1.5000000000000002 1150.0000000000002 23.250000000000004
decision_type=2 2 2 2 2 2 2 2 2 2 2 2 2
left_child=9 2 3 7 5 8 -7 -2 -3 10 12 -12 -1
right_child=1 4 -4 -5 -6 6 -8 -9 -10 -11 11 -13 -14
leaf_value=-0.015126102248283282 -0.014871594711791638 0.026169926055840086 0.021372608230227515 0.017318129702047869 0.036851564361935568 -0.011751046445634629 0.02225547949473063 -0.0015682449504619337 0.012049303650856019 -0.016631521391868593 -0.01443876451253891 2.8131093297685894e-05 -0.0091674762010574336
leaf_weight=73 43 56 21 22 21 27 24 131 20 50 20 28 50
leaf_count=73 43 56 21 22 21 27 24 131 20 50 20 28 50
internal_value=0 0.00734834 -6.95624e-05 -0.00236694 0.0182246 0.0151445 0.00425202 -0.00485585 0.022454 -0.0121364 -0.010822 -0.00599974 -0.0127039
internal_weight=0 365 217 196 148 127 51 174 76 221 171 48 123
internal_count=586 365 217 196 148 127 51 174 76 221 171 48 123
is_linear=0
shrinkage=0.08


Tree=6
num_leaves=14
num_cat=0
split_feature=0 4 1 0 0 2 6 3 2 5 8 2 5
split_gain=7.01422 3.31993 1.80739 1.48696 0.876589 2.055 0.757341 0.755768 0.894115 0.670995 0.233667 0.21979 0.175872
threshold=75.000000000000014 215.30000000000004 1.5000000000000002 386.25000000000006 45.500000000000007 22.250000000000004 1.0000000180025095e-35 26.150000000000002 22.550000000000004 1428.2500000000002 98.467475560000011 22.050000000000004 1750.0000000000002
decision_type=2 2 2 2 2 2 2 2 2 2 2 2 2
left_child=4 2 3 6 12 -6 -2 11 -9 -3 -7 -4 -1
right_child=1 9 7 -5 5 10 -8 8 -10 -11 -12 -13 -14
leaf_value=-0.012111000463049462 0.0038413612210020727 0.034572636773509365 0.015956748247146605 0.017793121933937072 0.013063006980078562 -0.018873586708849126 -0.0088812866923096891 0.017272741496562959 -0.005630263090133667 0.01630444797602567 -0.0069258087873458867 0.027674944060189381 -0.0057788933407176626
leaf_weight=188 49 31 20 24 35 22 77 24 20 22 20 21 33
leaf_count=188 49 31 20 24 35 22 77 24 20 22 20 21 33
internal_value=0 0.00890313 0.00482405 -0.000457316 -0.00860437 -0.00125363 -0.00393359 0.0141441 0.00686228 0.0269896 -0.0131842 0.0219588 -0.0111655
internal_weight=0 288 235 150 298 77 126 85 44 53 42 41 221
internal_count=586 288 235 150 298 77 126 85 44 53 42 41 221
is_linear=0
shrinkage=0.08


Tree=7
num_leaves=14
num_cat=0
split_feature=0 1 4 5 2 2 9 3 4 2 7 5 3
split_gain=5.95261 2.72564 2.14642 1.63055 3.15973 1.15572 1.15436 0.577924 0.560399 0.169891 0.169398 0.163823 0.00274806
threshold=59.750000000000007 1.0000000180025095e-35 187.25000000000003 1025.0000000000002 24.150000000000002 20.450000000000003 115.50000000000001 28.650000000000002 210.65000000000001 24.950000000000003 633.50000000000011 1150.0000000000002 33.350000000000001
decision_type=2 2 2 2 2 2 2 2 2 2 2 2 2
left_child=8 7 3 5 -5 -3 -4 -2 9 10 11 -1 -11
right_child=1 2 6 4 -6 -7 -8 -9 -10 12 -12 -13 -14
leaf_value=-0.010563682023059115 -0.016343027928779865 -0.01744567360196795 0.013818847603268094 0.021135241440784786 -0.011400094842910767 0.0036417351216077804 0.035476948789187841 -0.00086322769974217267 0.0018748048635629508 -0.015284774568345812 -0.015230492220984564 -0.0052323737409379744 -0.014064572311583019
leaf_weight=89 29 21 36 81 25 80 28 33 26 27 27 63 21
leaf_count=89 29 21 36 81 25 80 28 33 26 27 27 63 21
internal_value=0 0.00702802 0.0104899 0.00653107 0.0134618 -0.000742776 0.0232943 -0.00810378 -0.00925032 -0.0105246 -0.00939123 -0.008354 -0.0147509
internal_weight=0 333 271 207 106 101 64 62 253 227 179 152 48
internal_count=586 333 271 207 106 101 64 62 253 227 179 152 48
is_linear=0
shrinkage=0.08


Tree=8
num_leaves=14
num_cat=0
split_feature=0 4 0 8 8 2 5 1 2 9 8 4 4
split_gain=5.10555 2.47271 1.30901 1.56122 1.45243 1.3914 0.747776 0.502487 0.531347 0.797255 0.191864 0.128592 0.0230791
threshold=75.000000000000014 247.15000000000001 308.75000000000006 41.315000000000005 100.76965175000002 23.250000000000004 2100.0000000000005 1.0000000180025095e-35 23.650000000000002 96.500000000000014 101.74666330000001 99.350000000000009 103.75000000000001
decision_type=2 2 2 2 2 2 2 2 2 2 2 2 2
left_child=6 2 3 -2 -5 -4 7 12 9 -9 -3 -10 -1
right_child=1 10 5 4 -6 -7 -8 8 11 -11 -12 -13 -14
leaf_value=-0.013620659071823646 -0.016324736762929847 0.031594045162200927 0.025506505194832298 0.011129191155019013 -0.0039258467184530724 -0.00068430934633527483 0.0075999191403388977 -0.010937338800265872 -0.008722951092371126 0.0012875548041010477 0.020512856602668765 -0.015098491609096527 -0.016870878051828457
leaf_weight=29 27 20 34 92 74 21 20 58 41 83 20 40 27
leaf_count=29 27 20 34 92 74 21 20 58 41 83 20 40 27
internal_value=0 0.00759581 0.00461877 0.00151609 0.00441791 0.0155064 -0.00734092 -0.0084158 -0.00670756 -0.00374112 0.0260535 -0.0118714 -0.0151877
internal_weight=0 288 248 193 166 55 298 278 222 141 40 81 56
internal_count=586 288 248 193 166 55 298 278 222 141 40 81 56
is_linear=0
shrinkage=0.08


Tree=9
num_leaves=14
num_cat=0
split_feature=0 1 2 5 7 2 3 9 8 9 9 3 2
split_gain=4.40429 2.73214 1.21411 1.46079 1.56759 0.92758 1.25522 0.972762 0.878921 0.473119 0.412719 0.33316 0.165757
threshold=45.500000000000007 1.5000000000000002 24.250000000000004 850.00000000000011 463.50000000000006 20.350000000000005 26.150000000000002 104.50000000000001 97.298233085000007 96.500000000000014 98.500000000000014 22.050000000000004 19.550000000000004
decision_type=2 2 2 2 2 2 2 2 2 2 2 2 2
left_child=12 2 3 9 -5 7 11 -3 -8 -2 -4 -7 -1
right_child=1 5 10 4 -6 6 8 -9 -10 -11 -12 -13 -14
leaf_value=-0.0037749167400247916 -0.0013992580771446227 -0.0091047636270523077 -0.017646406491597492 0.012466488315704021 -0.0090982038634164 0.034712918940044586 -0.0020191933711369834 0.015846542716026306 0.017857826914106097 -0.018800303041934967 -0.0037840353591101512 0.021383062813963211 -0.0098473355923106975
leaf_weight=34 20 20 27 94 28 21 24 20 35 20 28 28 187
leaf_count=34 20 20 27 94 28 21 24 20 35 20 28 28 187
internal_value=0 0.00539671 -0.000319341 0.00316734 0.00751721 0.0137777 0.017632 0.00337089 0.00977226 -0.0100998 -0.0105892 0.0270959 -0.00891312
internal_weight=0 365 217 162 122 148 108 40 59 40 55 49 221
internal_count=586 365 217 162 122 148 108 40 59 40 55 49 221
is_linear=0
shrinkage=0.08


Tree=10
num_leaves=14
num_cat=0
split_feature=0 1 4 5 2 2 9 3 4 2 7 2 3
split_gain=3.73935 1.98907 1.47291 1.28759 2.4093 0.977327 0.890666 0.464048 0.435267 0.11346 0.129004 0.118297 0.00237173
threshold=59.750000000000007 1.0000000180025095e-35 187.25000000000003 1025.0000000000002 24.150000000000002 20.450000000000003 115.50000000000001 28.650000000000002 210.65000000000001 24.950000000000003 633.50000000000011 23.250000000000004 33.350000000000001
decision_type=2 2 2 2 2 2 2 2 2 2 2 2 2
left_child=8 7 3 5 -5 -3 -4 -2 9 10 11 -1 -11
right_child=1 2 6 4 -6 -7 -8 -9 -10 12 -12 -13 -14
leaf_value=-0.007911839673393652 -0.014739246697261416 -0.016575316474551249 0.010811431739065383 0.018107628704589089 -0.010302660965919495 0.002816385209560394 0.029835659946714128 -0.0008681358713092226 0.0024730496681653535 -0.012404430133325081 -0.012624171751516838 -0.0027577204139609085 -0.011270851918629237
leaf_weight=114 29 21 36 81 25 80 28 33 26 27 27 38 21
leaf_count=114 29 21 36 81 25 80 28 33 26 27 27 38 21
internal_value=0 0.00557028 0.00852764 0.00524822 0.0114071 -0.00121555 0.0191345 -0.00735624 -0.00733164 -0.00845464 -0.00752847 -0.00662331 -0.0119085
internal_weight=0 333 271 207 106 101 64 62 253 227 179 152 48
internal_count=586 333 271 207 106 101 64 62 253 227 179 152 48
is_linear=0
shrinkage=0.08


Tree=11
num_leaves=12
num_cat=0
split_feature=4 0 1 3 3 9 4 9 3 3 0
split_gain=3.21294 2.75596 1.49317 1.14891 1.04711 0.792775 0.328451 0.22043 0.261948 0.363672 0.0847967
threshold=320.95000000000005 59.750000000000007 1.0000000180025095e-35 25.650000000000002 24.150000000000002 139.50000000000003 104.7 155.50000000000003 28.050000000000004 24.750000000000004 22.750000000000004
decision_type=2 2 2 2 2 2 2 2 2 2 2
left_child=1 7 6 4 -4 -5 -3 8 9 -1 -10
right_child=-2 2 3 5 -6 -7 -8 -9 10 -11 -12
leaf_value=-0.0093999999219721003 0.0259609998505691 -0.0022922279203639313 0.0088886052451721612 -8.7180877090396733e-05 0.029159767343884424 0.016638736213956559 -0.014110910737956013 1.1393184011632745e-05 -0.0083410109579563144 0.00062525126338005069 -0.012455259203910827
leaf_weight=55 29 34 73 133 21 21 27 22 56 40 75
leaf_count=55 29 34 73 133 21 21 27 22 56 40 75
internal_value=0 -0.00135165 0.00368968 0.00644775 0.0134173 0.00219363 -0.00752345 -0.00763299 -0.00837713 -0.00517884 -0.0106965
internal_weight=0 557 309 248 94 154 61 248 226 95 131
internal_count=586 557 309 248 94 154 61 248 226 95 131
is_linear=0
shrinkage=0.08


Tree=12
num_leaves=14
num_cat=0
split_feature=0 4 8 8 4 2 7 5 8 0 9 4 2
split_gain=2.75754 1.82161 0.982347 2.01431 0.728433 0.789108 0.803103 0.650814 0.430128 0.327773 1.1347 0.472543 0.274934
threshold=80.250000000000014 116.7 98.153725735000009 79.435000000000016 320.95000000000005 24.550000000000004 533.50000000000011 1150.0000000000002 202.06500000000003 46.750000000000007 108.50000000000001 113.15000000000002 23.050000000000004
decision_type=2 2 2 2 2 2 2 2 2 2 2 2 2
left_child=8 2 3 12 5 6 -3 -4 9 -1 11 -11 -2
right_child=1 4 7 -5 -6 -7 -8 -9 -10 10 -12 -13 -14
leaf_value=-0.007662390077916476 0.00055607420206069949 0.016144083048923907 -0.016474740877747536 0.021392580805153681 0.02605150103569031 -0.004544231721333095 -0.00047177419066429138 0.00039031037577876341 0.0061500932872295376 -0.0021150438422742096 0.0089224821329116823 -0.018514959324489943 -0.012549972534179688
leaf_weight=208 20 83 32 29 20 21 24 27 20 23 36 22 21
leaf_count=208 20 83 32 29 20 21 24 27 20 23 36 22 21
internal_value=0 0.00579618 -0.00115269 0.00525653 0.011853 0.00963443 0.0124172 -0.00875684 -0.00519593 -0.00598112 -0.00166377 -0.0101328 -0.00615678
internal_weight=0 277 129 70 148 128 107 59 309 289 81 45 41
internal_count=586 277 129 70 148 128 107 59 309 289 81 45 41
is_linear=0
shrinkage=0.08


Tree=13
num_leaves=11
num_cat=0
split_feature=4 0 1 8 7 0 3 2 2 0
split_gain=2.41789 2.03155 1.1854 0.965155 0.970465 0.84903 0.306301 0.187013 0.232961 0.155896
threshold=320.95000000000005 59.750000000000007 1.0000000180025095e-35 41.315000000000005 1.0000000180025095e-35 142.75000000000003 28.650000000000002 18.650000000000002 19.650000000000002 37.250000000000007
decision_type=2 2 2 2 2 2 2 2 2 2
left_child=1 7 6 5 -5 -4 -3 -1 -9 -10
right_child=-2 2 3 4 -6 -7 -8 8 9 -11
leaf_value=-0.013788302966526576 0.022521035835660737 -0.01279000915330032 -0.017397159397602082 0.011047810215454597 -0.0015028585352987614 0.0056341567209788734 -0.0014384530857205391 0.0023476145565509798 -0.0082127576683248792 -0.0035203951686175899
leaf_weight=21 29 29 20 154 53 21 32 20 140 67
leaf_count=21 29 29 20 154 53 21 32 20 140 67
internal_value=0 -0.00117255 0.00315581 0.00561325 0.00783435 -0.00560063 -0.00683509 -0.00656554 -0.00589736 -0.00669397
internal_weight=0 557 309 248 207 41 61 248 227 207
internal_count=586 557 309 248 207 41 61 248 227 207
is_linear=0
shrinkage=0.08


Tree=14
num_leaves=11
num_cat=0
split_feature=4 0 2 0 8 8 9 3 3 9
split_gain=2.0465 1.71951 1.09802 1.06342 1.64988 0.539711 0.169554 0.220723 0.299667 0.0874619
threshold=320.95000000000005 59.750000000000007 26.150000000000002 308.75000000000006 56.320000000000007 95.820000000000007 155.50000000000003 28.050000000000004 24.750000000000004 103.50000000000001
decision_type=2 2 2 2 2 2 2 2 2 2
left_child=1 6 3 4 -3 -5 7 8 -1 -9
right_child=-2 2 -4 5 -6 -7 -8 9 -10 -11
leaf_value=-0.007588837645270608 0.020719352960586548 -0.011887970986691388 -0.012508606248431735 0.022861078427388121 0.0053385551385982067 0.0065606462955474856 0.00066412440755150533 -0.0071180496995265664 0.0015115449577569962 -0.011329676115287925
leaf_weight=55 29 44 27 26 186 26 22 78 40 53
leaf_count=55 29 44 27 26 186 26 22 78 40 53
internal_value=0 -0.00107875 0.00290334 0.00437896 0.00204305 0.0147109 -0.0060403 -0.00669294 -0.0037571 -0.00882199
internal_weight=0 557 309 282 230 52 248 226 95 131
internal_count=586 557 309 282 230 52 248 226 95 131
is_linear=0
shrinkage=0.08


Tree=15
num_leaves=13
num_cat=0
split_feature=4 0 1 3 2 8 3 1 3 8 2 3
split_gain=1.73216 1.45539 0.972435 0.856378 0.950764 0.68825 0.263972 0.165832 0.276883 0.243523 0.175677 0.126468
threshold=320.95000000000005 59.750000000000007 1.0000000180025095e-35 25.650000000000002 20.350000000000005 100.76965175000002 28.650000000000002 1.5000000000000002 25.650000000000002 36.555000000000014 21.550000000000004 31.350000000000005
decision_type=2 2 2 2 2 2 2 2 2 2 2 2
left_child=1 7 6 4 -4 -5 -3 9 -9 -1 -11 -10
right_child=-2 2 3 5 -6 -7 -8 8 11 10 -12 -13
leaf_value=0.0014466792345046997 0.019061804639882055 -0.011906103471229817 -0.0024524498939514161 0.0048229256778393155 0.015756954637126647 -0.0067235663284858074 -0.0013680675253272057 0.004485918116569519 -0.010354993831027637 -0.011841147184371948 -0.0060970626868934279 -0.0019576376676559448
leaf_weight=20 29 29 25 106 69 48 32 25 22 50 107 24
leaf_count=20 29 29 25 106 69 48 32 25 22 50 107 24
internal_value=0 -0.000992446 0.00267108 0.00489685 0.010914 0.00122402 -0.00637795 -0.00555708 -0.00229078 -0.00686729 -0.00792639 -0.00597376
internal_weight=0 557 309 248 94 154 61 248 71 177 157 46
internal_count=586 557 309 248 94 154 61 248 71 177 157 46
is_linear=0
shrinkage=0.08


Tree=16
num_leaves=14
num_cat=0
split_feature=0 4 8 8 2 2 3 5 5 5 2 3 3
split_gain=1.46682 1.28923 0.811954 1.55736 0.633752 0.553241 0.961375 0.668617 0.545265 0.345002 0.50609 0.255567 0.56495
threshold=80.250000000000014 116.7 98.153725735000009 79.435000000000016 21.350000000000005 21.650000000000002 29.850000000000005 1150.0000000000002 1428.2500000000002 1900.0000000000002 21.350000000000005 24.150000000000002 27.750000000000004
decision_type=2 2 2 2 2 2 2 2 2 2 2 2 2
left_child=9 2 3 -2 -4 8 7 -7 -3 11 -11 -1 -13
right_child=1 5 4 -5 -6 6 -8 -9 -10 10 -12 12 -14
leaf_value=-0.0093742509330472634 -0.0058272110543599945 0.021136983053104297 -0.019685181379318236 0.01839657976709563 -0.0023681155003999412 -0.00019759569849286761 -0.0082660888671875002 0.018290401408749241 0.0071029387502109303 -0.0050616126507520677 0.012169356673955918 0.004078068733215332 -0.0058543815343610707
leaf_weight=62 41 37 21 29 38 21 25 31 34 24 20 48 155
leaf_count=62 41 37 21 29 38 21 25 31 34 24 20 48 155
internal_value=0 0.00422735 -0.00161854 0.00420836 -0.00853182 0.00932276 0.00462598 0.0108241 0.0144165 -0.00378957 0.00277065 -0.00487881 -0.00350582
internal_weight=0 277 129 70 59 148 77 52 71 309 44 265 203
internal_count=586 277 129 70 59 148 77 52 71 309 44 265 203
is_linear=0
shrinkage=0.08


Tree=17
num_leaves=12
num_cat=0
split_feature=4 0 2 7 1 8 0 5 5 7 2
split_gain=1.38023 1.16186 1.06243 1.40466 0.750903 0.722048 0.717567 0.543517 0.279655 0.313315 0.132217
threshold=320.95000000000005 182.75000000000003 24.250000000000004 1.0000000180025095e-35 1.5000000000000002 56.320000000000007 46.750000000000007 850.00000000000011 992.60000000000014 515.50000000000011 23.550000000000004
decision_type=2 2 2 2 2 2 2 2 2 2 2
left_child=1 4 3 7 8 -6 -7 -3 10 -10 -1
right_child=-2 2 -4 -5 5 6 -8 -9 9 -11 -12
leaf_value=-0.012025984843571981 0.017015508331101516 0.0044438664291215979 -0.0095758903804032697 -0.0074232753614584604 -0.010909793454667796 -0.0020988218099982649 0.010563354550815019 0.019129115475548641 -0.0016511377221659609 -0.0083609110116958617 -0.0054700036389487127
leaf_weight=45 29 23 23 24 23 54 61 54 152 63 35
leaf_count=45 29 23 23 24 23 54 61 54 152 63 35
internal_value=0 -0.000885906 0.00594175 0.00947547 -0.00284117 0.00202973 0.00461764 0.0147426 -0.00511976 -0.00361726 -0.00915774
internal_weight=0 557 124 101 433 138 115 77 295 215 80
internal_count=586 557 124 101 433 138 115 77 295 215 80
is_linear=0
shrinkage=0.08


Tree=18
num_leaves=10
num_cat=0
split_feature=4 0 1 8 3 8 6 0 9
split_gain=1.16822 1.05305 0.749748 0.731535 0.685933 0.615552 0.352919 0.548563 0.536712
threshold=320.95000000000005 308.75000000000006 1.5000000000000002 41.315000000000005 25.650000000000002 98.153725735000009 1.0000000180025095e-35 109.75000000000001 124.50000000000001
decision_type=2 2 2 2 2 2 2 2 2
left_child=1 2 6 -4 -5 -3 7 -1 -8
right_child=-2 5 3 4 -6 -7 8 -9 -10
leaf_value=-0.0045897882469629839 0.01565426777149069 0.01559184473914069 -0.011525128313473292 0.010981673647960027 -0.00024585700178720866 -0.0013061830672350797 -0.0078340401910843068 0.0082901559815262305 0.0011560965017838913
leaf_weight=59 29 37 21 60 83 22 187 33 55
leaf_count=59 29 37 21 60 83 22 187 33 55
internal_value=0 -0.000815034 -0.00201232 0.00241748 0.004465 0.00929089 -0.00418743 3.01917e-05 -0.00579083
internal_weight=0 557 498 164 143 59 334 92 242
internal_count=586 557 498 164 143 59 334 92 242
is_linear=0
shrinkage=0.08


Tree=19
num_leaves=10
num_cat=0
split_feature=4 0 1 3 2 8 5 2 4
split_gain=0.988784 0.891303 0.634586 0.637146 0.527038 0.433103 0.34716 0.398998 0.110143
threshold=320.95000000000005 308.75000000000006 1.5000000000000002 21.750000000000004 23.250000000000004 41.315000000000005 992.60000000000014 24.650000000000002 72.350000000000009
decision_type=2 2 2 2 2 2 2 2 2
left_child=1 2 6 -4 -3 -5 8 -8 -1
right_child=-2 4 3 5 -6 -7 7 -9 -10
leaf_value=-0.0038553147315979002 0.014401926213297351 0.014168472415522526 0.013213583997317724 -0.010603118283408028 -0.0016234626088823592 0.0018907339261925737 -0.00033392307811609196 -0.0079689194107877802 -0.0096878416013361796
leaf_weight=30 29 38 28 21 21 115 179 58 67
leaf_count=30 29 38 28 21 21 115 179 58 67
internal_value=0 -0.000749831 -0.00185134 0.00222408 0.00854761 -3.84638e-05 -0.00385244 -0.0022024 -0.00788397
internal_weight=0 557 498 164 59 136 334 237 97
internal_count=586 557 498 164 59 136 334 237 97
is_linear=0
shrinkage=0.08


Tree=20
num_leaves=14
num_cat=0
split_feature=0 1 2 5 5 2 5 1 9 9 9 0 3
split_gain=0.862617 0.7976 0.718607 0.905687 0.72808 0.622984 0.915392 0.676345 0.525375 0.499549 0.147369 0.138173 0.171985
threshold=45.500000000000007 1.5000000000000002 20.350000000000005 992.60000000000014 1150.0000000000002 24.550000000000004 850.00000000000011 1.0000000180025095e-35 104.50000000000001 95.500000000000014 98.500000000000014 13.750000000000002 33.95000000000001
decision_type=2 2 2 2 2 2 2 2 2 2 2 2 2
left_child=11 5 8 -4 -5 6 9 -8 -3 -2 -7 -1 -13
right_child=1 2 3 4 -6 10 7 -9 -10 -11 -12 12 -14
leaf_value=-0.0088968065765596214 0.00027031028270721436 -0.011411582589149476 0.025676338851451874 -0.0044202723640661976 0.011528906456885799 -0.013301687175812928 -0.003335165892328535 0.0090739816988215736 0.0069252625703811648 -0.017396025033224197 -0.0045106278016017031 -0.0017957300399911815 -0.0074571042524443736
leaf_weight=31 20 20 20 26 62 23 42 85 20 21 26 145 45
leaf_count=31 20 20 20 26 62 23 42 85 20 21 26 145 45
internal_value=0 0.00238836 0.00691666 0.0103092 0.00681665 -0.000700064 0.00161489 0.00497017 -0.00224316 -0.0087783 -0.00863704 -0.00394458 -0.00313658
internal_weight=0 365 148 108 88 217 168 127 40 41 49 221 190
internal_count=586 365 148 108 88 217 168 127 40 41 49 221 190
is_linear=0
shrinkage=0.08


Tree=21
num_leaves=14
num_cat=0
split_feature=4 6 7 9 0 0 8 4 3 9 2 4 3
split_gain=0.782363 0.729095 0.604945 0.537229 0.623778 0.525393 0.853112 1.52039 0.536052 0.251624 0.172935 0.143114 0.105657
threshold=320.95000000000005 1.0000000180025095e-35 657.50000000000011 86.500000000000014 31.750000000000004 109.75000000000001 96.42338435500001 120.80000000000001 27.750000000000004 124.50000000000001 22.650000000000002 114.05000000000001 32.45000000000001
decision_type=2 2 2 2 2 2 2 2 2 2 2 2 2
left_child=1 5 3 10 -5 8 -7 -8 11 -4 -3 -1 -10
right_child=-2 2 9 4 -6 6 7 -9 12 -11 -12 -13 -14
leaf_value=0.010704087510704993 0.012810729865370126 -0.0034003295676380981 -0.01399093410453281 -0.0062326516040035942 0.0031151089465225137 0.017619433403015135 -0.014291783542860122 0.016528375029563905 -0.011137704253196717 -0.0034731527293721839 -0.010477100969889226 0.0015411182244618735 -0.0031036088954318653
leaf_weight=20 29 51 37 61 182 36 21 20 20 24 39 24 22
leaf_count=20 29 51 37 61 182 36 21 20 20 24 39 24 22
internal_value=0 -0.000666986 -0.00252864 -0.00118698 0.000768552 0.00383297 0.00863298 0.00074244 -0.000464708 -0.00985279 -0.00646693 0.0057061 -0.00692937
internal_weight=0 557 394 333 243 163 77 41 86 61 90 44 42
internal_count=586 557 394 333 243 163 77 41 86 61 90 44 42
is_linear=0
shrinkage=0.08


Tree=22
num_leaves=13
num_cat=0
split_feature=0 4 0 8 0 8 8 0 9 4 5 2
split_gain=0.66691 0.750143 0.632861 0.60585 0.552985 0.665218 0.543617 0.497904 0.325902 0.15378 0.146783 0.0906756
threshold=308.75000000000006 210.65000000000001 82.500000000000014 56.320000000000007 59.750000000000007 95.820000000000007 98.153725735000009 57.750000000000007 106.50000000000001 91.250000000000014 1900.0000000000002 22.350000000000005
decision_type=2 2 2 2 2 2 2 2 2 2 2 2
left_child=1 3 -3 7 10 -6 8 9 -2 -1 -5 -9
right_child=6 2 -4 4 5 -7 -8 11 -10 -11 -12 -13
leaf_value=-0.0060975005209445952 0.020213977836427234 -0.0013321517407894135 0.014130086501439413 -0.0046540242204299344 0.011316361484073459 -0.00021198481983608668 -0.0013656101844928884 -0.0096347116340290417 0.0059447481036186221 0.0031887092902546836 0.002326106916774403 -0.016553658865116262
leaf_weight=25 21 32 36 156 42 135 27 22 20 21 22 27
leaf_count=25 21 32 36 156 42 135 27 22 20 21 22 27
internal_value=0 -0.000977832 0.00685374 -0.00216127 -0.000642772 0.00252355 0.00744878 -0.00783565 0.0132534 -0.00185814 -0.00379131 -0.0134472
internal_weight=0 518 68 450 355 177 68 95 41 46 178 49
internal_count=586 518 68 450 355 177 68 95 41 46 178 49
is_linear=0
shrinkage=0.08


Tree=23
num_leaves=11
num_cat=0
split_feature=4 6 9 0 0 8 8 4 8 9
split_gain=0.609156 0.585869 0.570617 0.569445 0.404812 0.837836 1.11737 0.883919 0.37468 0.283882
threshold=320.95000000000005 1.0000000180025095e-35 164.00000000000003 281.50000000000006 80.250000000000014 97.688399495000013 53.705000000000005 135.85000000000005 58.590000000000011 102.50000000000001
decision_type=2 2 2 2 2 2 2 2 2 2
left_child=1 4 3 8 9 6 -6 -7 -3 -1
right_child=-2 2 -4 -5 5 7 -8 -9 -10 -11
leaf_value=0.0039019879611099468 0.011304045771730357 -0.0091065361575312816 0.010261784805492922 0.0064204203115927208 0.0009833470257845792 -0.010216484798325433 0.025480253971540013 0.011973056077957154 -0.0026257099546776476 -0.0064359658781219936
leaf_weight=34 29 73 22 37 22 27 26 20 262 34
leaf_count=34 29 73 22 37 22 27 26 20 262 34
internal_value=0 -0.000588541 -0.00225736 -0.00299774 0.00344528 0.00681828 0.0142525 -0.000774127 -0.00403795 -0.00126699
internal_weight=0 557 394 372 163 95 48 47 335 68
internal_count=586 557 394 372 163 95 48 47 335 68
is_linear=0
shrinkage=0.08


Tree=24
num_leaves=14
num_cat=0
split_feature=1 3 3 0 3 0 5 8 7 3 9 9 0
split_gain=0.534823 0.478099 0.786435 0.646667 0.467808 0.430073 0.414127 0.387226 0.370122 0.486714 0.290666 0.655343 0.441073
threshold=1.5000000000000002 25.650000000000002 33.050000000000004 59.750000000000007 29.050000000000004 444.50000000000006 2100.0000000000005 100.17122140000002 463.50000000000006 24.750000000000004 129.50000000000003 104.50000000000001 108.75000000000001
decision_type=2 2 2 2 2 2 2 2 2 2 2 2 2
left_child=5 10 4 -4 7 6 8 -3 9 -1 11 12 -2
right_child=1 2 3 -5 -6 -7 -8 -9 -10 -11 -12 -13 -14
leaf_value=-0.0073576936039371765 -0.0031723296642303467 0.0078178756651671039 -0.002468108052299136 0.016103077105113439 -0.012026655394019503 0.0093028996104285843 0.0084137521755127676 -0.0067083077629407255 -0.007834411799544241 0.00053877727504181598 -0.00018822749455769857 0.022620546847581861 0.013224142676308042
leaf_weight=69 21 23 21 28 33 21 21 24 82 181 21 20 21
leaf_count=69 21 23 21 28 33 21 21 24 82 181 21 20 21
internal_value=0 0.00321007 0.000162698 0.008144 -0.00472585 -0.00181961 -0.00248129 0.00040025 -0.00317043 -0.00164065 0.00794634 0.0107016 0.00502591
internal_weight=0 212 129 49 80 374 353 47 332 250 83 62 42
internal_count=586 212 129 49 80 374 353 47 332 250 83 62 42
is_linear=0
shrinkage=0.08


Tree=25
num_leaves=9
num_cat=0
split_feature=4 2 0 2 8 8 0 4
split_gain=0.494408 0.522958 0.622803 0.695197 0.464299 0.518952 0.434582 0.151777
threshold=320.95000000000005 18.650000000000002 308.75000000000006 23.250000000000004 56.320000000000007 121.64500000000001 57.750000000000007 142.95000000000002
decision_type=2 2 2 2 2 2 2 2
left_child=1 7 4 -4 6 -6 -3 -1
right_child=-2 2 3 -5 5 -7 -8 -9
leaf_value=-0.013598852753639222 0.01018386672283041 -0.00036879558278166732 0.015054966722215925 -0.0033567499546777635 0.0024733451663279068 -0.0041007135578177189 -0.011365479943544969 -0.0042016950520602147
leaf_weight=22 29 46 35 21 255 110 46 22
leaf_count=22 29 46 35 21 255 110 46 22
internal_value=0 -0.000530219 0.00018768 0.00815057 -0.000788079 0.000492122 -0.00586714 -0.00890027
internal_weight=0 557 513 56 457 365 92 44
internal_count=586 557 513 56 457 365 92 44
is_linear=0
shrinkage=0.08


Tree=26
num_leaves=9
num_cat=0
split_feature=2 4 2 0 5 2 4 8
split_gain=0.463487 0.481787 0.517953 0.524109 0.450343 0.389024 0.128464 0.0398554
threshold=26.650000000000002 320.95000000000005 18.650000000000002 308.75000000000006 1150.0000000000002 23.150000000000002 142.95000000000002 83.820000000000007
decision_type=2 2 2 2 2 2 2 2
left_child=1 2 6 4 -4 -5 -1 -2
right_child=7 -3 3 5 -6 -7 -8 -9
leaf_value=-0.0125109447945248 -0.0051391966529190534 0.011274050244918237 -0.0025110575787288727 0.014158289432525634 0.0027453429768888316 5.6011563255673368e-05 -0.003865559541366317 -0.0099305145144462578
leaf_weight=22 20 26 223 31 196 21 22 25
leaf_count=22 20 26 223 31 196 21 22 25
internal_value=0 0.000648885 0.000112469 0.000887908 -5.22163e-05 0.00846314 -0.00818825 -0.00780104
internal_weight=0 541 515 471 419 52 44 45
internal_count=586 541 515 471 419 52 44 45
is_linear=0
shrinkage=0.08


Tree=27
num_leaves=13
num_cat=0
split_feature=6 9 2 0 4 0 3 8 8 0 4 0
split_gain=0.393731 0.480784 0.413169 0.517466 0.378398 0.589778 0.659236 0.396818 0.353506 0.328695 0.202275 0.117917
threshold=1.0000000180025095e-35 164.00000000000003 26.150000000000002 281.50000000000006 87.100000000000009 116.75000000000001 27.750000000000004 98.153725735000009 70.085000000000022 279.25000000000006 130.15000000000003 61.750000000000007
decision_type=2 2 2 2 2 2 2 2 2 2 2 2
left_child=4 2 3 8 7 6 10 -1 -2 -7 -6 -4
right_child=1 -3 11 -5 5 9 -8 -9 -10 -11 -12 -13
leaf_value=0.0043677193197337065 -0.0064455842480740768 0.0094615298151969913 -0.0053290681346603065 0.0076257282037001392 0.013487342089414597 0.018011135373796738 -0.0076069483882747592 -0.011006700041748228 -0.00046521220869488186 0.0049439835006540476 0.0021094641387462616 -0.013620535348142898
leaf_weight=22 88 25 23 39 20 28 32 21 225 22 20 21
leaf_count=22 88 25 23 39 20 28 32 21 225 22 20 21
internal_value=0 -0.0012982 -0.00197748 -0.00106387 0.00331238 0.00558683 0.00095158 -0.00314072 -0.00214659 0.0122616 0.0077984 -0.00928636
internal_weight=0 421 396 352 165 122 72 43 313 50 40 44
internal_count=586 421 396 352 165 122 72 43 313 50 40 44
is_linear=0
shrinkage=0.08


Tree=28
num_leaves=14
num_cat=0
split_feature=1 8 3 3 4 3 8 7 3 5 2 4 3
split_gain=0.375638 0.377178 0.354171 0.693277 0.609567 0.45331 0.663234 0.291442 0.458448 0.62158 0.760552 0.58335 0.211417
threshold=1.5000000000000002 41.315000000000005 25.650000000000002 33.250000000000007 262.60000000000008 23.350000000000005 98.775121740000017 515.50000000000011 23.750000000000004 850.00000000000011 24.250000000000004 80.90000000000002 30.550000000000004
decision_type=2 2 2 2 2 2 2 2 2 2 2 2 2
left_child=7 -2 5 4 -4 6 -3 8 11 -10 -11 -1 -9
right_child=1 2 3 -5 -6 -7 -8 12 9 10 -12 -13 -14
leaf_value=0.005175215750932694 -0.0067540194652974603 0.015040259689092637 -0.0082143440613379852 0.0095943411191304531 0.0082199232876300817 0.016661803607757274 -0.0036455733160818777 -0.0017914292758161371 -0.0047689722418127693 0.0081811858770939015 -0.0044679857708167202 -0.010365020139859274 -0.0097759846779631419
leaf_weight=22 24 20 52 39 20 26 31 44 68 104 43 52 41
leaf_count=22 24 20 52 39 20 26 31 44 68 104 43 52 41
internal_value=0 0.00269026 0.00389591 0.00100389 -0.00364927 0.00806493 0.0036822 -0.00152496 -0.000313829 0.00155549 0.00448109 -0.00574495 -0.0056428
internal_weight=0 212 188 111 72 77 51 374 289 215 147 74 85
internal_count=586 212 188 111 72 77 51 374 289 215 147 74 85
is_linear=0
shrinkage=0.08


Tree=29
num_leaves=12
num_cat=0
split_feature=7 0 9 5 2 4 0 7 9 7 4
split_gain=0.354252 0.376777 0.516327 0.759986 0.498347 0.618728 0.474411 0.221352 0.346317 0.114137 0.0976254
threshold=859.50000000000011 36.750000000000007 96.500000000000014 1428.2500000000002 18.750000000000004 191.00000000000003 77.250000000000014 478.00000000000006 83.500000000000014 657.50000000000011 168.20000000000002
decision_type=2 2 2 2 2 2 2 2 2 2 2
left_child=1 7 3 6 -4 -6 -3 8 -1 -9 -10
right_child=-2 2 4 -5 5 -7 -8 9 10 -11 -12
leaf_value=0.0026414870110250291 -0.010463832162320615 -0.0068312308192253115 -0.0061490676764930996 -0.013173181597263581 0.0031440339835350356 0.013921790222326915 0.0041259648957673242 0.0064690651725977655 -0.0057504435142745145 -0.0017943358403104154 -0.01209829729795456
leaf_weight=31 20 36 28 31 181 42 85 20 69 23 20
leaf_count=31 20 36 28 31 181 42 85 20 69 23 20
internal_value=0 0.000369747 0.00168245 -0.00199728 0.0039108 0.00517393 0.000865973 -0.00287576 -0.0046405 0.00204911 -0.00717693
internal_weight=0 566 403 152 251 223 121 163 120 43 89
internal_count=586 566 403 152 251 223 121 163 120 43 89
is_linear=0
shrinkage=0.08


Tree=30
num_leaves=14
num_cat=0
split_feature=6 9 8 4 0 5 0 4 0 3 8 0 4
split_gain=0.324476 0.391588 0.330772 0.419873 0.47263 0.37911 0.49946 0.314761 0.455529 0.535198 0.341334 0.287128 0.178863
threshold=1.0000000180025095e-35 164.00000000000003 87.665000000000006 247.15000000000001 287.75000000000006 1650.0000000000002 90.750000000000014 87.100000000000009 116.75000000000001 27.750000000000004 98.153725735000009 279.25000000000006 130.15000000000003
decision_type=2 2 2 2 2 2 2 2 2 2 2 2 2
left_child=7 2 5 4 -4 6 -2 10 9 12 -1 -10 -9
right_child=1 -3 3 -5 -6 -7 -8 8 11 -11 -12 -13 -14
leaf_value=0.0040852381830865691 -0.0030189552169074029 0.0085319861650466917 -0.0024969286260757653 0.008532573059201241 0.010128204226493836 0.0051287678026017691 -0.01385962294228375 0.012526457369327545 0.016321207540375846 -0.0067037412301579023 -0.01017389795609883 0.00410820489579981 0.0018272759020328522
leaf_weight=22 85 25 197 32 21 21 40 20 28 32 21 22 20
leaf_count=22 85 25 197 32 21 21 40 20 28 32 21 22 20
internal_value=0 -0.00117851 -0.00179155 -2.46413e-05 -0.00128075 -0.00481707 -0.00648797 0.00300699 0.00508139 0.00100771 -0.00287853 0.0109475 0.00717687
internal_weight=0 421 396 250 218 146 125 165 122 72 43 50 40
internal_count=586 421 396 250 218 146 125 165 122 72 43 50 40
is_linear=0
shrinkage=0.08


Tree=31
num_leaves=13
num_cat=0
split_feature=2 0 7 9 9 9 3 7 9 7 1 0
split_gain=0.299008 0.292828 0.447212 0.956943 0.456624 0.678546 0.400721 0.17491 0.318418 0.115296 0.0931332 0.035838
threshold=26.650000000000002 36.750000000000007 1.0000000180025095e-35 125.50000000000001 152.50000000000003 96.500000000000014 25.650000000000002 478.00000000000006 83.500000000000014 667.50000000000011 1.5000000000000002 53.500000000000007
decision_type=2 2 2 2 2 2 2 2 2 2 2 2
left_child=1 7 4 6 5 -3 -4 8 -1 -9 -10 -2
right_child=11 2 3 -5 -6 -7 -8 9 10 -11 -12 -13
leaf_value=0.0029008314681464227 -0.0038522540973055931 -0.00012281039554137187 0.0012250875607132913 0.0095800270195360547 -0.0059925513594381273 0.0079860424736721645 -0.012295156549266044 0.0062423598039895306 -0.005062436035500383 -0.0019820208172313869 -0.011069246878226597 -0.0083776127298672998
leaf_weight=29 21 122 20 27 31 144 47 20 53 24 24 24
leaf_count=29 21 122 20 27 31 144 47 20 53 24 24 24
internal_value=0 0.000521183 0.00167399 -0.00313521 0.00319609 0.00426694 -0.00825926 -0.00248379 -0.00424384 0.00175633 -0.00693469 -0.00626578
internal_weight=0 541 391 94 297 266 67 150 106 44 77 45
internal_count=586 541 391 94 297 266 67 150 106 44 77 45
is_linear=0
shrinkage=0.08


Tree=32
num_leaves=14
num_cat=0
split_feature=1 8 3 3 9 3 8 0 5 7 5 5 3
split_gain=0.291606 0.299091 0.269396 0.598214 0.452787 0.376732 0.563044 0.284254 0.261204 0.292288 0.300585 0.462757 0.16173
threshold=1.5000000000000002 41.315000000000005 25.650000000000002 31.350000000000005 115.50000000000001 23.350000000000005 98.775121740000017 45.500000000000007 2100.0000000000005 463.50000000000006 992.60000000000014 1750.0000000000002 27.450000000000003
decision_type=2 2 2 2 2 2 2 2 2 2 2 2 2
left_child=8 -2 5 4 -4 6 -3 -5 9 10 12 -12 -1
right_child=1 2 3 7 -6 -7 -8 -9 -10 -11 11 -13 -14
leaf_value=-0.0085029239846127376 -0.006039702196527893 0.01354958038777113 -0.010139132257964876 0.00060360188511284917 0.0038754590511322026 0.014917102593642016 -0.0036671357385573851 0.012755332653011596 0.0069155073425044193 -0.006066100258982127 0.0031363862557719424 -0.0086428742885589615 -0.001720367321034982
leaf_weight=35 24 20 36 22 25 26 31 28 23 82 146 25 63
leaf_count=35 24 20 36 22 25 26 31 28 23 82 146 25 63
internal_value=0 0.00237032 0.00344394 0.000921678 -0.00439545 0.00707994 0.00308452 0.00740857 -0.00134361 -0.0018848 -0.000610204 0.00141427 -0.00414271
internal_weight=0 212 188 111 61 77 51 50 374 351 269 171 98
internal_count=586 212 188 111 61 77 51 50 374 351 269 171 98
is_linear=0
shrinkage=0.08


Tree=33
num_leaves=11
num_cat=0
split_feature=7 1 3 3 3 3 9 2 2 3
split_gain=0.26543 0.244704 0.314185 0.814266 0.642543 0.479986 0.571865 0.24211 0.561078 0.320731
threshold=859.50000000000011 1.0000000180025095e-35 28.050000000000004 26.750000000000004 25.650000000000002 38.750000000000007 96.500000000000014 23.450000000000003 24.850000000000005 29.850000000000005
decision_type=2 2 2 2 2 2 2 2 2 2
left_child=1 7 3 4 -3 6 -4 9 -9 -1
right_child=-2 2 5 -5 -6 -7 -8 8 -10 -11
leaf_value=-0.011257078106524812 -0.0090575251504778874 0.0034127802705499017 -0.0072317380805738095 0.014659554064273835 -0.0085741508092199055 0.0090913004593716727 0.0013155928738415241 0.0093314950048923491 -0.0086457316577434537 0.0004034510376648261
leaf_weight=36 20 157 86 34 35 27 120 25 20 26
leaf_count=36 20 157 86 34 35 27 120 25 20 26
internal_value=0 0.000320054 0.00112319 0.00324839 0.00122766 -0.000938168 -0.00225271 -0.00312516 0.00134162 -0.00636718
internal_weight=0 566 459 226 192 233 206 107 45 62
internal_count=586 566 459 226 192 233 206 107 45 62
is_linear=0
shrinkage=0.08


Tree=34
num_leaves=13
num_cat=0
split_feature=6 9 9 4 4 5 8 4 0 2 0 8
split_gain=0.251711 0.321759 0.316063 0.364485 0.42496 0.380078 0.273117 0.31994 0.370862 0.319083 0.190815 0.166477
threshold=1.0000000180025095e-35 164.00000000000003 86.500000000000014 120.80000000000001 172.55000000000004 1150.0000000000002 87.665000000000006 247.15000000000001 287.75000000000006 19.450000000000003 90.750000000000014 97.381178900000009
decision_type=2 2 2 2 2 2 2 2 2 2 2 2
left_child=2 6 11 5 -5 -4 9 8 -8 -2 -11 -1
right_child=1 -3 3 4 -6 -7 7 -9 -10 10 -12 -13
leaf_value=0.013999047711491587 0.0047816221274080729 0.0077642193794250497 -0.0093407125836786099 0.013383410063882668 -0.00028513680841471697 0.0030135320822397868 -0.0021619379185234683 0.0074816384818404916 0.0090216551508222314 -0.0036523835522582733 -0.010269783906461228 0.0036769659295678137
leaf_weight=20 21 25 34 24 37 30 197 32 21 83 42 20
leaf_count=20 21 25 34 24 37 30 197 32 21 83 42 20
internal_value=0 -0.00103799 0.00264845 0.000667788 0.00509265 -0.00354966 -0.00159369 1.18617e-05 -0.00108462 -0.00434291 -0.00587583 0.00883801
internal_weight=0 421 165 125 61 64 396 250 218 146 125 40
internal_count=586 421 165 125 61 64 396 250 218 146 125 40
is_linear=0
shrinkage=0.08


Tree=35
num_leaves=13
num_cat=0
split_feature=2 5 9 9 3 0 4 2 0 0 8 0
split_gain=0.227692 0.242837 0.493549 0.605092 0.52195 0.493808 0.38533 0.369304 0.302529 0.25394 0.196771 0.0338674
threshold=26.650000000000002 1150.0000000000002 143.50000000000003 124.50000000000001 25.650000000000002 57.000000000000007 191.00000000000003 20.350000000000005 130.75000000000003 58.250000000000007 120.19500000000001 53.500000000000007
decision_type=2 2 2 2 2 2 2 2 2 2 2 2
left_child=1 6 3 4 -3 -4 7 9 -8 -1 -9 -2
right_child=11 2 5 -5 -6 -7 8 10 -10 -11 -12 -13
leaf_value=-0.0026161857896173997 -0.0031215038008633113 0.0076409955231043014 0.0027577889675185797 0.013392882164035525 -0.0013138491431540201 -0.014806738704442979 -0.00050224324688315388 0.00064531018622089305 0.012645911602746874 -0.014027828843547748 -0.0053699468796991777 -0.007520683084925016
leaf_weight=24 21 65 21 35 116 20 24 143 21 26 46 24
leaf_count=24 21 65 21 35 116 20 24 143 21 26 46 24
internal_value=0 0.000454802 0.00223653 0.00376393 0.00190198 -0.00581027 -0.00115753 -0.00243619 0.00563356 -0.00855024 -0.000818721 -0.00546773
internal_weight=0 541 257 216 181 41 284 239 45 50 189 45
internal_count=586 541 257 216 181 41 284 239 45 50 189 45
is_linear=0
shrinkage=0.08


Tree=36
num_leaves=9
num_cat=0
split_feature=3 6 9 8 0 9 9 3
split_gain=0.214898 0.237625 0.268401 0.2723 0.339655 0.238659 0.276898 0.495438
threshold=38.750000000000007 1.0000000180025095e-35 81.500000000000014 45.20000000000001 59.750000000000007 164.00000000000003 147.50000000000003 25.650000000000002
decision_type=2 2 2 2 2 2 2 2
left_child=1 2 -1 -4 -5 6 7 -3
right_child=-2 5 3 4 -6 -7 -8 -9
leaf_value=0.010053153919676941 0.0063743738806806508 0.0028081321537805101 -0.006852917714665333 -0.0037993279699650075 0.0056959877193790602 0.0063226059451699261 -0.010614045783877374 -0.0035282524942029346
leaf_weight=24 32 120 24 36 73 24 22 231
leaf_count=24 32 120 24 36 73 24 22 231
internal_value=0 -0.000368195 0.00226648 0.000861363 0.00255992 -0.00141012 -0.00190767 -0.00136197
internal_weight=0 554 157 133 109 397 373 351
internal_count=586 554 157 133 109 397 373 351
is_linear=0
shrinkage=0.08


Tree=37
num_leaves=13
num_cat=0
split_feature=1 3 3 3 9 3 9 8 8 2 2 3
split_gain=0.204732 0.264057 0.71766 0.538067 0.542963 0.388979 0.428938 0.315064 0.311576 0.206449 0.429268 0.236699
threshold=1.0000000180025095e-35 28.050000000000004 26.750000000000004 26.150000000000002 152.50000000000003 38.750000000000007 96.500000000000014 122.40000000000002 73.520000000000024 23.450000000000003 24.850000000000005 29.850000000000005
decision_type=2 2 2 2 2 2 2 2 2 2 2 2
left_child=9 2 3 4 -2 6 8 -8 -3 11 -11 -1
right_child=1 5 -4 -5 -6 -7 7 -9 -10 10 -12 -13
leaf_value=-0.010046582262178786 0.0038953330779289887 -0.00016924967581871897 0.013411478601834352 -0.011615718320012092 -0.0098227845558098385 0.0079651011312725367 0.0027195266536572606 -0.0071359787795406129 -0.010033280994220262 0.0078455234870601163 -0.007743953513447195 -0.00044959695528036563
leaf_weight=38 153 32 34 20 21 27 103 26 57 26 20 29
leaf_count=38 153 32 34 20 21 27 103 26 57 26 20 29
internal_value=0 0.000730875 0.00269028 0.000811305 0.0022397 -0.00109257 -0.00221439 0.000733146 -0.00648666 -0.00305933 0.00106749 -0.00589266
internal_weight=0 473 228 194 174 245 218 129 89 113 46 67
internal_count=586 473 228 194 174 245 218 129 89 113 46 67
is_linear=0
shrinkage=0.08


Tree=38
num_leaves=6
num_cat=0
split_feature=7 7 7 7 7
split_gain=0.198632 0.241939 0.27255 0.329223 0.480846
threshold=859.50000000000011 784.00000000000011 667.50000000000011 593.50000000000011 515.50000000000011
decision_type=2 2 2 2 2
left_child=1 2 3 4 -1
right_child=-2 -3 -4 -5 -6
leaf_value=0.00050046783484411625 -0.007835359394550323 0.0087029114223661878 -0.0066767775808536526 0.0084238094367807912 -0.011119299217437704
leaf_weight=453 20 21 37 31 24
leaf_count=453 20 21 37 31 24
internal_value=0 0.000276868 -4.78054e-05 0.000435013 -8.41745e-05
internal_weight=0 566 545 508 477
internal_count=586 566 545 508 477
is_linear=0
shrinkage=0.08


Tree=39
num_leaves=12
num_cat=0
split_feature=2 6 9 9 8 2 2 4 4 8 4
split_gain=0.189212 0.281057 0.463589 0.341282 0.273333 0.294567 0.264744 0.259891 0.347105 0.272243 0.213186
threshold=18.650000000000002 1.0000000180025095e-35 164.00000000000003 88.500000000000014 75.02500000000002 24.650000000000002 21.450000000000003 120.80000000000001 172.55000000000004 97.99583241500001 142.95000000000002
decision_type=2 2 2 2 2 2 2 2 2 2 2
left_child=10 3 4 -2 6 -6 -3 9 -9 -5 -1
right_child=1 2 -4 7 5 -7 -8 8 -10 -11 -12
leaf_value=-0.010599868611686609 0.0099413047358393666 0.0012487405155386245 0.010867804615270524 0.0024718538050850234 0.0015990342082760226 -0.004983715192813958 -0.0070776243715397558 0.013570542916655541 -3.5430282354354861e-05 -0.0083600619159362941 -7.627691807491439e-05
leaf_weight=22 38 35 21 33 195 56 81 20 30 27 28
leaf_count=22 38 35 21 33 195 56 81 20 30 27 28
internal_value=0 0.000439054 -0.000692356 0.00340518 -0.00135384 0.000130373 -0.00456536 0.00114725 0.00540696 -0.00240251 -0.00470666
internal_weight=0 536 388 148 367 251 116 110 50 60 50
internal_count=586 536 388 148 367 251 116 110 50 60 50
is_linear=0
shrinkage=0.08


Tree=40
num_leaves=9
num_cat=0
split_feature=4 2 6 9 9 9 4 2
split_gain=0.185508 0.312203 0.23604 0.417101 0.308086 0.238311 0.223318 0.0735101
threshold=320.95000000000005 18.650000000000002 1.0000000180025095e-35 164.00000000000003 88.500000000000014 98.500000000000014 132.05000000000004 17.350000000000005
decision_type=2 2 2 2 2 2 2 2
left_child=1 7 4 6 -3 -6 -4 -1
right_child=-2 2 3 -5 5 -7 -8 -9
leaf_value=-0.0032099170684814454 0.0062380857264687272 0.0091460004135182037 -4.3092918151168064e-05 0.010381367996335029 -0.0066592451059047809 0.0026714328414392335 -0.0043271719175588218 -0.0097769503047068912
leaf_weight=20 29 38 229 20 22 86 118 24
leaf_count=20 29 38 229 20 22 86 118 24
internal_value=0 -0.000324784 0.000229904 -0.000852445 0.0029506 0.000770739 -0.00149993 -0.00679194
internal_weight=0 557 513 367 146 108 347 44
internal_count=586 557 513 367 146 108 347 44
is_linear=0
shrinkage=0.08


Tree=41
num_leaves=6
num_cat=0
split_feature=7 7 7 7 7
split_gain=0.168391 0.209453 0.338 0.231635 0.396311
threshold=859.50000000000011 768.50000000000011 677.00000000000011 593.50000000000011 515.50000000000011
decision_type=2 2 2 2 2
left_child=1 2 3 4 -1
right_child=-2 -3 -4 -5 -6
leaf_value=0.00045545751413445564 -0.007214289268478751 0.0071309462110339498 -0.0086477698943677496 0.0067591511019889049 -0.010093567582468193
leaf_weight=453 20 27 28 34 24
leaf_count=453 20 27 28 34 24
internal_value=0 0.000254922 -8.95172e-05 0.000379428 -7.5311e-05
internal_weight=0 566 539 511 477
internal_count=586 566 539 511 477
is_linear=0
shrinkage=0.08


Tree=42
num_leaves=14
num_cat=0
split_feature=2 0 0 5 4 9 8 8 9 3 3 3 0
split_gain=0.168078 0.328017 0.375294 0.260934 0.586925 0.38203 0.515683 0.970721 0.764275 0.280685 0.473832 0.235146 0.192405
threshold=24.950000000000003 177.75000000000003 75.000000000000014 1150.0000000000002 191.00000000000003 143.50000000000003 98.467475560000011 70.635000000000005 111.24000000000002 27.150000000000002 29.050000000000004 25.350000000000005 109.75000000000001
decision_type=2 2 2 2 2 2 2 2 2 2 2 2 2
left_child=3 2 -2 4 9 6 7 -5 -8 11 -11 -1 -6
right_child=1 -3 -4 5 12 -7 8 -9 -10 10 -12 -13 -14
leaf_value=-0.003825484528270964 -0.0038874675890766697 -0.011848825552733616 0.0083007086677984749 0.0016687716387042944 0.0019939430281519892 -0.0049910557083785532 -0.0036868519248601833 0.020331106801827748 0.0099442367561352572 0.010991675842553377 -0.0025440150755457582 -0.013117077272871267 0.012957841399170103
leaf_weight=72 61 21 22 44 20 36 81 30 39 20 96 23 21
leaf_count=72 61 21 22 44 20 36 81 30 39 20 96 23 21
internal_value=0 -0.00291678 -0.000656867 0.000629347 -0.00114891 0.0025777 0.00398221 0.00923458 0.000743252 -0.0028508 -0.000210275 -0.00607503 0.0076096
internal_weight=0 104 83 482 252 230 194 74 120 211 116 95 41
internal_count=586 104 83 482 252 230 194 74 120 211 116 95 41
is_linear=0
shrinkage=0.08


Tree=43
num_leaves=13
num_cat=0
split_feature=1 3 4 3 8 5 3 8 3 3 8 8
split_gain=0.154227 0.258319 0.527599 0.519442 0.286207 0.320449 0.216087 0.198967 0.175722 0.560428 0.416851 0.106591
threshold=1.5000000000000002 23.750000000000004 81.550000000000011 25.150000000000002 122.40000000000002 850.00000000000011 30.850000000000005 41.315000000000005 33.250000000000007 29.150000000000002 95.820000000000007 112.09000000000002
decision_type=2 2 2 2 2 2 2 2 2 2 2 2
left_child=1 2 -1 -3 5 -5 -6 -2 9 10 -9 -4
right_child=7 3 11 4 6 -7 -8 8 -10 -11 -12 -13
leaf_value=0.0045300508111428758 -0.005135589252070835 0.012265208420299351 -0.011964447728225164 -0.0049858767723736279 -0.00023331087568531864 0.0022161633891025277 -0.01053995983193939 0.011886354200541974 0.0073801105939902559 -0.0088511319564921528 0.0010122957465412852 -0.0048581581274894153
leaf_weight=26 24 21 35 52 23 165 30 30 39 28 91 22
leaf_count=26 24 21 35 52 23 165 30 30 39 28 91 22
internal_value=0 -0.000977134 -0.0049139 0.000145724 -0.000796902 0.000490329 -0.00606726 0.00172381 0.00259948 0.00134817 0.00370834 -0.00922167
internal_weight=0 374 83 291 270 217 53 212 188 149 121 57
internal_count=586 374 83 291 270 217 53 212 188 149 121 57
is_linear=0
shrinkage=0.08


Tree=44
num_leaves=14
num_cat=0
split_feature=1 5 2 2 8 3 8 0 4 2 5 3 2
split_gain=0.14038 0.207468 0.328315 0.416958 0.828308 0.490633 0.275011 0.416503 0.311759 0.410156 0.172147 0.170177 0.171854
threshold=1.0000000180025095e-35 1150.0000000000002 24.150000000000002 21.350000000000005 98.775121740000017 28.050000000000004 86.540000000000006 90.750000000000014 238.45000000000002 20.450000000000003 1428.2500000000002 28.650000000000002 23.850000000000005
decision_type=2 2 2 2 2 2 2 2 2 2 2 2 2
left_child=11 6 3 4 -3 -5 7 -2 9 -8 -4 12 -1
right_child=1 2 10 5 -6 -7 8 -9 -10 -11 -12 -13 -14
leaf_value=-0.009382943689371601 -0.00040881363423689017 0.0095641170451907735 0.0031411216421984136 0.014922006541961116 -0.0057945797931064262 0.0022281464710831641 -0.0090954631787759296 -0.011293292266981943 0.0099590169435197669 0.0020528071885448449 -0.006028411858286219 0.00038456252341469128 1.5063397586345673e-05
leaf_weight=33 63 38 20 38 55 40 27 35 22 97 38 60 20
leaf_count=33 63 38 20 38 55 40 27 35 22 97 38 60 20
internal_value=0 0.000605205 0.00233467 0.00409881 0.000481017 0.00841233 -0.00101794 -0.00429613 0.00118249 -0.000374639 -0.0028665 -0.00253329 -0.00583653
internal_weight=0 473 229 171 93 78 244 98 146 124 58 113 53
internal_count=586 473 229 171 93 78 244 98 146 124 58 113 53
is_linear=0
shrinkage=0.08


Tree=45
num_leaves=8
num_cat=0
split_feature=3 2 8 8 4 0 0
split_gain=0.145152 0.157901 0.212538 0.217041 0.267494 0.213571 0.0768051
threshold=38.750000000000007 26.650000000000002 20.895000000000003 41.315000000000005 101.80000000000001 31.750000000000004 53.500000000000007
decision_type=2 2 2 2 2 2 2
left_child=1 2 -1 4 -4 -5 -3
right_child=-2 6 3 5 -6 -7 -8
leaf_value=0.0081777330264449118 0.0052388050385343381 -0.0014028406870507061 0.0010286831584843722 -0.0029617436586248909 -0.011066555328667165 0.0012548941067625705 -0.0080945597005927048
leaf_weight=20 32 21 22 99 25 344 23
leaf_count=20 32 21 22 99 25 344 23
internal_value=0 -0.000302602 9.41034e-05 -0.000235841 -0.00540495 0.000312576 -0.00490078
internal_weight=0 554 510 490 47 443 44
internal_count=586 554 510 490 47 443 44
is_linear=0
shrinkage=0.08


Tree=46
num_leaves=10
num_cat=0
split_feature=0 1 4 2 4 0 0 2 4
split_gain=0.128259 0.202978 0.184853 0.231146 0.437837 0.405801 0.175744 0.214066 0.0891361
threshold=475.00000000000006 1.0000000180025095e-35 58.600000000000009 23.650000000000002 71.65000000000002 137.75000000000003 130.75000000000003 23.450000000000003 114.05000000000001
decision_type=2 2 2 2 2 2 2 2 2
left_child=1 6 -3 4 -4 -5 7 8 -1
right_child=-2 2 3 5 -6 -7 -8 -9 -10
leaf_value=-0.0010007211709903046 0.005007852610320814 -0.0053863714542239909 0.013601771607995033 0.00014903168155556932 0.0013297335840482614 -0.011790500554171475 -0.0084782946830795659 0.0039350872387488682 -0.0079827925831079481
leaf_weight=22 31 32 20 106 267 22 31 30 25
leaf_count=22 31 32 20 106 267 22 31 30 25
internal_value=0 -0.000279718 0.000472297 0.00092405 0.00218493 -0.00190308 -0.00339222 -0.00134459 -0.00471459
internal_weight=0 555 447 415 287 128 108 77 47
internal_count=586 555 447 415 287 128 108 77 47
is_linear=0
shrinkage=0.08


Tree=47
num_leaves=7
num_cat=0
split_feature=7 7 7 7 7 9
split_gain=0.127996 0.179277 0.194857 0.289413 0.316739 0.188563
threshold=859.50000000000011 784.00000000000011 657.50000000000011 593.50000000000011 515.50000000000011 120.50000000000001
decision_type=2 2 2 2 2 2
left_child=1 2 3 4 -1 -4
right_child=-2 -3 5 -5 -6 -7
leaf_value=0.00037899485446996349 -0.0062897368032718082 0.0074755069524759347 -0.010924804250709711 0.0082731686745371145 -0.0090517296036705368 6.0664679855108266e-05
leaf_weight=453 20 21 20 28 24 20
leaf_count=453 20 21 20 28 24 20
internal_value=0 0.000222252 -5.7231e-05 0.000368499 -9.5507e-05 -0.00543207
internal_weight=0 566 545 505 477 40
internal_count=586 566 545 505 477 40
is_linear=0
shrinkage=0.08


Tree=48
num_leaves=11
num_cat=0
split_feature=2 2 0 8 4 8 8 3 2 8
split_gain=0.123674 0.188304 0.211128 0.309872 0.530493 0.389151 0.169888 0.218669 0.168277 0.0988244
threshold=18.650000000000002 19.350000000000005 37.250000000000007 60.815000000000005 157.45000000000002 95.820000000000007 114.35500000000002 29.650000000000002 17.250000000000004 62.225000000000009
decision_type=2 2 2 2 2 2 2 2 2 2
left_child=8 -2 6 4 -4 -5 9 -8 -1 -3
right_child=1 2 3 5 -6 -7 7 -9 -10 -11
leaf_value=0.0018789149448275567 0.0062091219154271219 -0.00073317892980412586 -0.0070592601072104258 0.0076897568259244936 0.0079545994997024545 0.00062190058353905366 -0.0038574180768707511 0.0077005488718859851 -0.0075946266402800878 -0.0061119510533720039
leaf_weight=20 33 32 61 65 20 214 22 20 30 69
leaf_count=20 33 32 61 65 20 214 22 20 30 69
internal_value=0 0.000354964 -2.91064e-05 0.00100388 -0.00335213 0.00226853 -0.00262964 0.00164638 -0.00380521 -0.00440779
internal_weight=0 536 503 360 81 279 143 42 50 101
internal_count=586 536 503 360 81 279 143 42 50 101
is_linear=0
shrinkage=0.08


Tree=49
num_leaves=13
num_cat=0
split_feature=3 5 3 8 8 1 2 4 8 4 8 9
split_gain=0.119931 0.136138 0.227736 0.705028 0.524579 0.475205 0.404845 0.208213 0.423052 0.277468 0.464725 0.112816
threshold=38.750000000000007 1150.0000000000002 29.150000000000002 121.64500000000001 153.04500000000004 1.0000000180025095e-35 24.650000000000002 91.250000000000014 99.781643960000011 105.50000000000001 98.55906643500002 91.500000000000014
decision_type=2 2 2 2 2 2 2 2 2 2 2 2
left_child=1 7 4 6 5 -3 -4 8 11 -9 -11 -1
right_child=-2 2 3 -5 -6 -7 -8 9 -10 10 -12 -13
leaf_value=0.0024441169719729159 0.0047619695914909244 -0.0098848467474315499 0.0047937088749924863 -0.012972720427507606 0.014491707628423518 0.0032675167945800006 -0.0074620423870890044 0.0070687832034403274 -0.011343981324074168 -0.0057676013393251051 0.0032906468429913121 -0.0038893039576295353
leaf_weight=36 32 21 69 27 22 108 23 31 36 73 72 36
leaf_count=36 32 21 69 27 22 108 23 31 36 73 72 36
internal_value=0 -0.00027506 0.00101112 -0.00160609 0.00307369 0.00112643 0.00172977 -0.00149784 -0.00426306 0.000199 -0.00126971 -0.000722593
internal_weight=0 554 270 119 151 129 92 284 108 176 145 72
internal_count=586 554 270 119 151 129 92 284 108 176 145 72
is_linear=0
shrinkage=0.08


Tree=50
num_leaves=6
num_cat=0
split_feature=0 7 7 7 7
split_gain=0.114517 0.115833 0.136268 0.185774 0.245978
threshold=13.250000000000002 859.50000000000011 784.00000000000011 657.50000000000011 593.50000000000011
decision_type=2 2 2 2 2
left_child=-1 2 3 4 -2
right_child=1 -3 -4 -5 -6
leaf_value=-0.0050886263356854523 0.00018529914219218952 -0.0057325341179966923 0.0067851539381912776 -0.0053320808874236219 0.0080444136620671652
leaf_weight=27 455 20 21 36 27
leaf_count=27 455 20 21 36 27
internal_value=0 0.000245783 0.000467613 0.000211497 0.00062554
internal_weight=0 559 539 518 482
internal_count=586 559 539 518 482
is_linear=0
shrinkage=0.08


Tree=51
num_leaves=12
num_cat=0
split_feature=3 3 8 3 3 3 0 0 8 9 4
split_gain=0.109941 0.439652 1.2885 0.401338 0.340759 0.354751 0.327837 0.390615 0.292334 0.288876 0.17701
threshold=23.350000000000005 25.650000000000002 98.87872452500001 22.350000000000005 26.750000000000004 28.050000000000004 108.75000000000001 208.25000000000003 103.44806785000002 151.50000000000003 136.65000000000001
decision_type=2 2 2 2 2 2 2 2 2 2 2
left_child=3 2 -2 6 -3 10 8 -8 -1 -7 -6
right_child=1 4 -4 -5 5 9 7 -9 -10 -11 -12
leaf_value=0.0008083905776341756 -0.0045562101674802378 -0.0076354226803309047 0.017799618474461817 -0.010348575079887866 0.011933390964632449 -0.0013914732629304017 0.013346953761009944 -0.00145312018096447 -0.011265861789385479 0.0069949106852813013 0.001642702676355839
leaf_weight=33 33 38 33 29 23 281 21 25 21 29 20
leaf_count=33 33 38 33 29 23 281 21 25 21 29 20
internal_value=0 0.000582181 0.0066217 -0.00206246 -0.000437278 0.000337593 0.000340518 0.00530344 -0.00388715 -0.000606941 0.00714702
internal_weight=0 457 66 129 391 353 100 46 54 310 43
internal_count=586 457 66 129 391 353 100 46 54 310 43
is_linear=0
shrinkage=0.08


Tree=52
num_leaves=12
num_cat=0
split_feature=2 6 9 9 8 8 4 4 8 2 9
split_gain=0.112435 0.154123 0.325019 0.242659 0.204365 0.302711 0.191057 0.299318 0.177575 0.145377 0.116708
threshold=18.650000000000002 1.0000000180025095e-35 164.00000000000003 88.500000000000014 87.665000000000006 96.62523474000001 120.80000000000001 172.55000000000004 97.99583241500001 17.250000000000004 91.500000000000014
decision_type=2 2 2 2 2 2 2 2 2 2 2
left_child=9 3 4 -2 10 -6 8 -8 -5 -1 -3
right_child=1 2 -4 6 5 -7 7 -9 -10 -11 -12
leaf_value=0.0016550217419862747 0.0080463239315309021 -0.00083633656376751794 0.0091800955416900774 0.0015240943491296615 0.0098016807725653052 -0.00049633375615084556 0.011864128291606903 -0.00077060204495986299 -0.007224090419433735 -0.0071503336355090144 -0.0055650032803041304
leaf_weight=20 38 59 21 33 20 211 20 30 27 30 77
leaf_count=20 38 59 21 33 20 211 20 30 27 30 77
internal_value=0 0.000338451 -0.000499381 0.00253493 -0.00105325 0.000395269 0.000630993 0.00428329 -0.00241259 -0.00362819 -0.0035136
internal_weight=0 536 388 148 367 231 110 50 60 50 136
internal_count=586 536 388 148 367 231 110 50 60 50 136
is_linear=0
shrinkage=0.08


Tree=53
num_leaves=8
num_cat=0
split_feature=4 2 0 8 8 9 2
split_gain=0.105369 0.199325 0.168457 0.164296 0.272736 0.184826 0.0517618
threshold=320.95000000000005 18.650000000000002 417.00000000000006 121.64500000000001 102.54833250000001 83.500000000000014 17.350000000000005
decision_type=2 2 2 2 2 2 2
left_child=1 6 3 4 -3 -5 -1
right_child=-2 2 -4 5 -6 -7 -8
leaf_value=-0.0024064233771059662 0.0047013836572396342 -0.00014179755336278472 0.0061208665782007676 0.0042145128082484006 0.006506000217050314 -0.0042392441564394782 -0.0079170417009542388
leaf_weight=20 29 323 29 20 45 96 24
leaf_count=20 29 323 29 20 45 96 24
internal_value=0 -0.000244776 0.000198435 -0.000156421 0.000671113 -0.0027817 -0.00541222
internal_weight=0 557 513 484 368 116 44
internal_count=586 557 513 484 368 116 44
is_linear=0
shrinkage=0.08


Tree=54
num_leaves=7
num_cat=0
split_feature=3 8 8 2 5 8
split_gain=0.104122 0.114545 0.124535 0.138105 0.373045 0.215003
threshold=38.750000000000007 20.895000000000003 29.545000000000005 20.150000000000002 2100.0000000000005 63.560000000000009
decision_type=2 2 2 2 2 2
left_child=1 -1 -3 5 -5 -4
right_child=-2 2 3 4 -6 -7
leaf_value=0.0051494626471928007 0.0044370204256847503 -0.006538433386234656 0.0042426438367163593 -0.00017248625578027032 0.010320522266885509 -0.0046306180578163441
leaf_weight=24 32 21 22 379 23 85
leaf_count=24 32 21 22 379 23 85
internal_value=0 -0.00025629 -0.000501079 -0.000251993 0.00042786 -0.00280621
internal_weight=0 554 530 509 402 107
internal_count=586 554 530 509 402 107
is_linear=0
shrinkage=0.08


Tree=55
num_leaves=14
num_cat=0
split_feature=5 3 3 8 3 3 2 8 3 2 1 9 0
split_gain=0.0998131 0.269586 0.442732 0.923866 0.365008 0.415337 0.337161 0.500927 0.268756 0.234439 0.233242 0.145557 0.395946
threshold=850.00000000000011 23.350000000000005 25.650000000000002 98.87872452500001 26.650000000000002 27.750000000000004 22.850000000000005 99.259935935000016 21.150000000000002 20.350000000000005 1.5000000000000002 85.500000000000014 94.250000000000014
decision_type=2 2 2 2 2 2 2 2 2 2 2 2 2
left_child=9 6 3 -3 -4 -6 7 -2 -8 -1 11 -11 -13
right_child=1 2 4 -5 5 -7 8 -9 -10 10 -12 12 -14
leaf_value=-0.0099517281949520111 0.0016685744776175574 -0.0025419115137170862 -0.0080110006009538968 0.018022089107283229 0.010516007308449064 0.00023303178916079547 0.0088786605071453813 -0.012903954951713483 -0.0040792820751667028 0.0021806007092473683 0.0064202470146119597 0.0014036092937957229 -0.012599517107009888
leaf_weight=20 26 27 30 29 28 246 21 36 20 27 24 28 24
leaf_count=20 26 27 30 29 28 246 21 36 20 27 24 28 24
internal_value=0 0.000538142 0.0015707 0.0081073 0.000366592 0.00128385 -0.00307081 -0.00679289 0.00255771 -0.00202569 -0.000486652 -0.00258495 -0.00505937
internal_weight=0 463 360 56 304 274 103 62 41 123 103 79 52
internal_count=586 463 360 56 304 274 103 62 41 123 103 79 52
is_linear=0
shrinkage=0.08


Tree=56
num_leaves=12
num_cat=0
split_feature=0 2 0 0 5 3 3 2 3 2 0
split_gain=0.105298 0.102902 0.283903 0.306525 0.172224 0.342591 0.625328 0.32547 0.264272 0.196831 0.141655
threshold=13.250000000000002 24.950000000000003 177.75000000000003 75.000000000000014 850.00000000000011 23.350000000000005 25.650000000000002 22.850000000000005 22.750000000000004 22.150000000000002 43.750000000000007
decision_type=2 2 2 2 2 2 2 2 2 2 2
left_child=-1 4 3 10 8 7 -7 -6 -2 -10 -3
right_child=1 2 -4 -5 5 6 -8 -9 9 -11 -12
leaf_value=-0.0048794985519446154 0.0058719835840165616 6.9386549293994908e-06 -0.010363604557656107 0.008111031973226504 -0.0061640721696118519 0.011909784092789604 0.001308316631704314 0.004041338900104165 -0.0096394341639724785 -0.0012237568059936166 -0.0084329753424972308
leaf_weight=27 20 35 21 22 60 42 234 30 29 46 20
leaf_count=27 20 35 21 22 60 42 234 30 29 46 20
internal_value=0 0.000235682 -0.00211847 0.000130208 0.00073613 0.00152391 0.00292158 -0.00276227 -0.00229891 -0.00447782 -0.00306212
internal_weight=0 559 98 77 461 366 276 90 95 75 55
internal_count=586 559 98 77 461 366 276 90 95 75 55
is_linear=0
shrinkage=0.08


Tree=57
num_leaves=7
num_cat=0
split_feature=3 2 2 5 4 3
split_gain=0.0966288 0.102535 0.160625 0.218754 0.158701 0.153073
threshold=38.750000000000007 18.650000000000002 19.350000000000005 2100.0000000000005 142.95000000000002 34.150000000000013
decision_type=2 2 2 2 2 2
left_child=1 4 -3 5 -1 -4
right_child=-2 2 3 -5 -6 -7
leaf_value=-0.0089964823708647782 0.0042743927962146698 0.0057659088224172594 -9.884448615817271e-05 0.0067241551257945873 0.00027626953191227382 -0.0043804897572244364
leaf_weight=21 32 30 387 27 27 62
leaf_count=21 32 30 387 27 27 62
internal_value=0 -0.000246896 8.83128e-05 -0.000269519 -0.00378056 -0.000690074
internal_weight=0 554 506 476 48 449
internal_count=586 554 506 476 48 449
is_linear=0
shrinkage=0.08


Tree=58
num_leaves=6
num_cat=0
split_feature=0 7 7 7 7
split_gain=0.0923247 0.0920787 0.108578 0.210325 0.156881
threshold=13.250000000000002 859.50000000000011 768.50000000000011 667.50000000000011 593.50000000000011
decision_type=2 2 2 2 2
left_child=-1 2 3 4 -2
right_child=1 -3 -4 -5 -6
leaf_value=-0.0045690305462038078 0.00018409736006223893 -0.0051095067821443083 0.0053629474086617978 -0.006583577676543168 0.0062527679138142493
leaf_weight=27 455 20 27 28 29
leaf_count=27 455 20 27 28 29
internal_value=0 0.000220687 0.000418467 0.000157723 0.000547716
internal_weight=0 559 539 512 484
internal_count=586 559 539 512 484
is_linear=0
shrinkage=0.08


Tree=59
num_leaves=9
num_cat=0
split_feature=4 2 0 2 0 0 8 2
split_gain=0.0810099 0.144666 0.144242 0.287009 0.199747 0.249908 0.0950571 0.04786
threshold=320.95000000000005 18.650000000000002 308.75000000000006 23.250000000000004 205.75000000000003 136.50000000000003 100.36449530000002 17.350000000000005
decision_type=2 2 2 2 2 2 2 2
left_child=1 7 4 -4 5 -3 -6 -1
right_child=-2 2 3 -5 6 -7 -8 -9
leaf_value=-0.0017266237325966357 0.0041222931470336587 -0.00043760957133817712 0.0084313793182373038 -0.0033987160523732502 -0.0084636074419205017 0.0058214497047921884 -0.0013185647773471746 -0.0070254781252394117
leaf_weight=20 29 363 35 21 26 46 22 24
leaf_count=20 29 363 35 21 26 46 22 24
internal_value=0 -0.000214626 0.000162958 0.00399509 -0.000306625 0.000266343 -0.0051888 -0.00461691
internal_weight=0 557 513 56 457 409 48 44
internal_count=586 557 513 56 457 409 48 44
is_linear=0
shrinkage=0.08


Tree=60
num_leaves=11
num_cat=0
split_feature=3 8 3 4 9 0 0 0 0 5
split_gain=0.0778286 0.0975929 0.330103 0.296276 0.157628 0.257327 0.232941 0.304269 0.155483 0.108858
threshold=38.750000000000007 121.64500000000001 31.750000000000004 160.60000000000005 86.500000000000014 27.750000000000004 370.75000000000006 31.750000000000004 142.75000000000003 1150.0000000000002
decision_type=2 2 2 2 2 2 2 2 2 2
left_child=1 4 3 9 5 -1 7 -6 -7 -3
right_child=-2 2 -4 -5 6 8 -8 -9 -10 -11
leaf_value=0.0055289211911371062 0.0038361057883594188 -0.0064763000905513771 -0.010620113303884864 0.0055224223716838937 -0.0026891475359814756 -0.0068369380926544022 -0.0050469944990404391 0.0033930997788352343 0.00057574471941700687 9.0939057370026906e-05
leaf_weight=21 32 35 24 37 69 55 34 222 27 30
leaf_count=21 32 35 24 37 69 55 34 222 27 30
internal_value=0 -0.00022158 -0.00217854 -0.000192281 0.000354533 -0.00237261 0.00121883 0.00195092 -0.00439618 -0.00344527
internal_weight=0 554 126 102 428 103 325 291 82 65
internal_count=586 554 126 102 428 103 325 291 82 65
is_linear=0
shrinkage=0.08


Tree=61
num_leaves=12
num_cat=0
split_feature=0 1 3 2 5 3 3 0 0 4 0
split_gain=0.0772441 0.10822 0.14633 0.117055 0.223814 0.347906 0.213124 0.203709 0.246986 0.116211 0.078234
threshold=475.00000000000006 1.0000000180025095e-35 28.650000000000002 23.650000000000002 850.00000000000011 23.350000000000005 27.650000000000002 137.75000000000003 75.000000000000014 114.05000000000001 57.750000000000007
decision_type=2 2 2 2 2 2 2 2 2 2 2
left_child=1 2 10 4 6 -6 -3 8 -5 -4 -1
right_child=-2 3 9 7 5 -7 -8 -9 -10 -11 -12
leaf_value=-0.0019220838293602521 0.0038863287085006315 0.0015989336165888558 0.0030641875482009103 -0.0025521216890774666 -0.0033325228437950665 0.0038883601343600539 -0.008099965328864497 -0.0082790212954084071 0.0054466969881738934 -0.0045415666433982552 -0.0082029180678073327
leaf_weight=22 31 29 36 84 55 191 29 24 35 20 30
leaf_count=22 31 29 36 84 55 191 29 24 35 20 30
internal_value=0 -0.000217074 -0.00248976 0.000332031 0.00121993 0.00227394 -0.00325052 -0.00155553 -0.000199528 0.000347847 -0.00554564
internal_weight=0 555 108 447 304 246 58 143 119 56 52
internal_count=586 555 108 447 304 246 58 143 119 56 52
is_linear=0
shrinkage=0.08


Tree=62
num_leaves=6
num_cat=0
split_feature=0 4 4 4 4
split_gain=0.0680052 0.0778862 0.373778 0.256288 0.175958
threshold=13.250000000000002 49.150000000000006 58.600000000000009 64.90000000000002 70.550000000000026
decision_type=2 2 2 2 2
left_child=-1 -2 -3 -4 -5
right_child=1 2 3 4 -6
leaf_value=-0.003921357226316576 0.0049690496158741769 -0.010459803969022774 0.0085006647347472611 -0.0073151592328213159 0.00034560197734925699
leaf_weight=27 21 21 24 20 473
leaf_count=27 21 21 24 20 473
internal_value=0 0.000189404 2.83759e-06 0.000427819 3.48206e-05
internal_weight=0 559 538 517 493
internal_count=586 559 538 517 493
is_linear=0
shrinkage=0.08


Tree=63
num_leaves=6
num_cat=0
split_feature=7 7 7 7 7
split_gain=0.0671997 0.0965653 0.163308 0.142555 0.210732
threshold=859.50000000000011 768.50000000000011 657.50000000000011 593.50000000000011 515.50000000000011
decision_type=2 2 2 2 2
left_child=1 2 3 4 -1
right_child=-2 -3 -4 -5 -6
leaf_value=0.00034987129598946435 -0.0045574088152498006 0.0048298339874276687 -0.0054395157175467293 0.0058362201388393129 -0.0073424853019726779
leaf_weight=453 20 27 34 28 24
leaf_count=453 20 27 34 28 24
internal_value=0 0.000161039 -7.28336e-05 0.000288488 -3.71655e-05
internal_weight=0 566 539 505 477
internal_count=586 566 539 505 477
is_linear=0
shrinkage=0.08


Tree=64
num_leaves=14
num_cat=0
split_feature=2 0 0 0 7 9 3 0 3 4 3 0 0
split_gain=0.0651361 0.228382 0.227023 0.131067 0.672445 0.450625 0.472393 0.274265 0.214987 0.197022 0.31609 0.176334 0.125286
threshold=24.950000000000003 177.75000000000003 75.000000000000014 138.75000000000003 1.0000000180025095e-35 129.50000000000003 22.150000000000002 99.750000000000014 26.050000000000004 144.65000000000003 22.150000000000002 45.500000000000007 43.750000000000007
decision_type=2 2 2 2 2 2 2 2 2 2 2 2 2
left_child=3 2 12 7 5 6 -5 9 -9 10 -1 -11 -2
right_child=1 -3 -4 4 -6 -7 -8 8 -10 11 -12 -13 -14
leaf_value=-0.0057745406429829272 8.9507280655841282e-05 -0.0092688058636018218 0.0070368423075838531 0.018407861709594728 -0.007731359167532488 -0.005734809581190348 0.0046082349634402756 -0.0002719349964805271 -0.010797250130110316 -0.0050568478847624818 0.0032901539499271505 0.0025204659381817128 -0.0076337307542562486
leaf_weight=29 41 21 22 20 33 20 77 23 27 61 163 29 20
leaf_count=29 41 21 22 20 33 20 77 23 27 61 163 29 20
internal_value=0 -0.00181576 6.99484e-05 0.000391783 0.0023544 0.0051991 0.00745352 -0.000494943 -0.00595561 0.00047326 0.00192101 -0.00261527 -0.0024427
internal_weight=0 104 83 482 150 117 97 332 50 282 192 90 61
internal_count=586 104 83 482 150 117 97 332 50 282 192 90 61
is_linear=0
shrinkage=0.08


Tree=65
num_leaves=14
num_cat=0
split_feature=3 3 1 4 9 9 8 0 8 7 3 0 0
split_gain=0.0714105 0.272164 0.346212 0.271071 0.321981 0.313744 0.228449 0.211191 0.154909 0.220672 0.262234 0.289776 0.118602
threshold=31.350000000000005 29.050000000000004 1.5000000000000002 291.80000000000007 130.50000000000003 119.50000000000001 102.08648505000001 90.750000000000014 58.82500000000001 546.50000000000011 32.45000000000001 59.750000000000007 46.750000000000007
decision_type=2 2 2 2 2 2 2 2 2 2 2 2 2
left_child=1 3 6 4 5 -1 -3 -6 -2 10 -10 -12 -11
right_child=8 2 -4 -5 7 -7 -8 -9 9 12 11 -13 -14
leaf_value=8.7562538848522741e-05 -0.0026168503551458827 0.002140974769319751 -0.013577348568609782 0.0088201424317515421 -0.0015490965161359671 0.0095729302003979694 -0.007960704031764812 -0.011535310460173564 0.0122991414537484 0.0019084991440176963 -0.0022762733951165546 0.0072943842429667718 -0.0068038652101531632
leaf_weight=208 49 38 21 23 33 25 23 23 22 20 41 40 20
leaf_count=208 49 38 21 23 33 25 23 23 22 20 41 40 20
internal_value=0 -0.000616488 -0.00471785 0.000461433 -0.000203793 0.00110531 -0.00166785 -0.00565058 0.00126508 0.00259526 0.00455368 0.00244998 -0.00244768
internal_weight=0 394 82 312 289 233 61 56 192 143 103 81 40
internal_count=586 394 82 312 289 233 61 56 192 143 103 81 40
is_linear=0
shrinkage=0.08


Tree=66
num_leaves=14
num_cat=0
split_feature=5 2 3 3 8 3 3 2 8 3 1 4 0
split_gain=0.0658278 0.179064 0.171658 0.285404 0.714566 0.341191 0.335427 0.220781 0.408975 0.202779 0.162436 0.125683 0.211245
threshold=850.00000000000011 20.350000000000005 23.350000000000005 25.650000000000002 98.87872452500001 26.650000000000002 27.750000000000004 22.850000000000005 99.259935935000016 21.150000000000002 1.5000000000000002 72.350000000000009 78.500000000000014
decision_type=2 2 2 2 2 2 2 2 2 2 2 2 2
left_child=1 -1 7 4 -4 -5 -7 8 -2 -9 11 -3 -13
right_child=2 10 3 5 -6 6 -8 9 -10 -11 -12 12 -14
leaf_value=-0.0085720759332180013 0.0021907880246782533 0.0023771812849574621 -0.0028563799571107934 -0.0078054579620560009 0.015228855137167307 0.00947766024619341 0.00023668649422319045 0.0076024112389201214 -0.010976502791874938 -0.003653195224702358 0.0054639278050308349 0.00055608984997013102 -0.0096493753761053083
leaf_weight=20 26 27 27 30 29 28 246 21 36 20 24 27 25
leaf_count=20 26 27 27 30 29 28 246 21 36 20 24 27 25
internal_value=0 -0.00164507 0.000437027 0.00126097 0.00650919 0.000294196 0.00118102 -0.00244279 -0.00545474 0.00211187 -0.000300017 -0.00205109 -0.00435038
internal_weight=0 123 463 360 56 304 274 103 62 41 103 79 52
internal_count=586 123 463 360 56 304 274 103 62 41 103 79 52
is_linear=0
shrinkage=0.08


Tree=67
num_leaves=7
num_cat=0
split_feature=3 2 2 5 5 0
split_gain=0.0630791 0.0878649 0.164095 0.171378 0.118881 0.113284
threshold=38.750000000000007 18.750000000000004 19.350000000000005 2100.0000000000005 1428.2500000000002 81.500000000000014
decision_type=2 2 2 2 2 2
left_child=1 5 -3 4 -4 -1
right_child=-2 2 3 -5 -6 -7
leaf_value=0.00040414969938305708 0.0034535336249973624 0.0063135160842480564 0.00019172976978033154 0.005976939764287737 -0.002765704342716579 -0.0070638162069595776
leaf_weight=26 32 26 331 27 118 26
leaf_count=26 32 26 331 27 118 26
internal_value=0 -0.000199482 0.000124777 -0.000213263 -0.000585502 -0.00332983
internal_weight=0 554 502 476 449 52
internal_count=586 554 502 476 449 52
is_linear=0
shrinkage=0.08


Tree=68
num_leaves=14
num_cat=0
split_feature=5 2 3 3 8 3 3 0 0 1 8 9 0
split_gain=0.0598692 0.155186 0.144301 0.244621 0.605204 0.290018 0.290648 0.204581 0.317582 0.137672 0.128633 0.111541 0.293196
threshold=850.00000000000011 20.350000000000005 23.350000000000005 25.650000000000002 99.781643960000011 26.650000000000002 27.750000000000004 207.75000000000003 108.75000000000001 1.5000000000000002 108.57000000000001 85.500000000000014 94.250000000000014
decision_type=2 2 2 2 2 2 2 2 2 2 2 2 2
left_child=1 -1 7 4 -4 -5 -7 8 10 11 -2 -3 -13
right_child=2 9 3 5 -6 6 -8 -9 -10 -11 -12 12 -14
leaf_value=-0.0080174706578254699 -0.00078343514166772364 0.0022429348197248247 -0.001711339111129443 -0.0071904086122910188 0.014964488905209761 0.0088178102778536938 0.00021575695674154696 -0.0094868077412247655 0.0077666694738648158 0.0049897298729047182 -0.0085154273485143987 0.0014666895385432458 -0.010583292065809172
leaf_weight=20 40 27 30 30 26 28 246 20 22 24 21 28 24
leaf_count=20 40 27 30 30 26 28 246 20 22 24 21 28 24
internal_value=0 -0.00156885 0.000416778 0.00117222 0.00603101 0.00027718 0.0010948 -0.0022236 -0.00047343 -0.000316689 -0.00344527 -0.00192877 -0.00409484
internal_weight=0 123 463 360 56 304 274 103 83 103 61 79 52
internal_count=586 123 463 360 56 304 274 103 83 103 61 79 52
is_linear=0
shrinkage=0.08


Tree=69
num_leaves=9
num_cat=0
split_feature=0 8 8 8 0 9 8 2
split_gain=0.0607895 0.0663222 0.108812 0.200261 0.244807 0.163556 0.254449 0.202088
threshold=13.250000000000002 232.98000000000005 121.64500000000001 130.88000000000002 106.25000000000001 79.500000000000014 73.520000000000024 24.650000000000002
decision_type=2 2 2 2 2 2 2 2
left_child=-1 2 5 -4 -5 6 -2 -7
right_child=1 -3 3 4 -6 7 -8 -9
leaf_value=-0.0037074865490474085 0.0026833901635836812 0.0045896462315604802 -0.009296375413735708 -0.0046418716292828321 0.0040633986665843391 0.0022096182685183725 -0.0073671905304256236 -0.0023354814214108046
leaf_weight=27 28 21 21 44 39 288 38 80
leaf_count=27 28 21 21 44 39 288 38 80
internal_value=0 0.000179074 6.91365e-06 -0.00231725 -0.000551443 0.000563855 -0.00310331 0.00122155
internal_weight=0 559 538 104 83 434 66 368
internal_count=586 559 538 104 83 434 66 368
is_linear=0
shrinkage=0.08


Tree=70
num_leaves=10
num_cat=0
split_feature=2 2 8 4 8 0 4 4 2
split_gain=0.0586875 0.136922 0.10954 0.323003 0.205557 0.432055 0.231842 0.183245 0.0863946
threshold=18.650000000000002 19.350000000000005 67.245000000000019 161.15000000000003 95.820000000000007 38.250000000000007 291.80000000000007 94.200000000000017 17.250000000000004
decision_type=2 2 2 2 2 2 2 2 2
left_child=8 -2 3 7 5 -4 -6 -3 -1
right_child=1 2 4 -5 6 -7 -8 -9 -10
leaf_value=0.0014515401665121316 0.0052364886281165215 -0.0012474830426147273 -0.005128294121135365 0.0056689244577730145 -0.00096535325414309487 0.0081719027018105541 0.007567029637496241 -0.0081390626919130953 -0.0053364742547273641
leaf_weight=20 33 58 22 27 277 54 22 43 30
leaf_count=20 33 58 22 27 277 54 22 43 30
internal_value=0 0.000244521 -8.29835e-05 -0.00210369 0.000606752 0.00432185 -0.000337553 -0.00418152 -0.00262127
internal_weight=0 536 503 128 375 76 299 101 50
internal_count=586 536 503 128 375 76 299 101 50
is_linear=0
shrinkage=0.08


Tree=71
num_leaves=14
num_cat=0
split_feature=3 3 1 4 9 0 8 0 8 7 9 0 0
split_gain=0.060046 0.21722 0.297472 0.200976 0.243577 0.260421 0.186367 0.167612 0.132896 0.189117 0.236459 0.201455 0.10103
threshold=31.350000000000005 29.050000000000004 1.5000000000000002 291.80000000000007 130.50000000000003 138.75000000000003 102.08648505000001 90.750000000000014 58.82500000000001 546.50000000000011 102.50000000000001 59.750000000000007 46.750000000000007
decision_type=2 2 2 2 2 2 2 2 2 2 2 2 2
left_child=1 3 6 4 5 -1 -3 -6 -2 10 -10 -12 -11
right_child=8 2 -4 -5 7 -7 -8 -9 9 12 11 -13 -14
leaf_value=-0.00073566080071032049 -0.0024354940082649797 0.0020379814038690375 -0.012441606528702236 0.0075949759586997657 -0.0012586594418142782 0.005173351280921167 -0.0070859928169976103 -0.010155087320700935 0.00018119821457990577 0.001744176957756281 0.002183610356372336 0.012065296374982404 -0.0062969265785068271
leaf_weight=166 49 38 21 23 33 67 23 23 49 20 23 31 20
leaf_count=166 49 38 21 23 33 67 23 23 49 20 23 31 20
internal_value=0 -0.000565309 -0.00422937 0.000397681 -0.000175114 0.000963497 -0.00140221 -0.00491255 0.00116006 0.0023921 0.00420511 0.00785643 -0.00227637
internal_weight=0 394 82 312 289 233 61 56 192 143 103 54 40
internal_count=586 394 82 312 289 233 61 56 192 143 103 54 40
is_linear=0
shrinkage=0.08


Tree=72
num_leaves=14
num_cat=0
split_feature=5 2 3 3 8 3 3 2 0 1 4 0 3
split_gain=0.0548196 0.131691 0.122506 0.285749 0.479684 0.25917 0.230975 0.196464 0.349759 0.103773 0.10229 0.165445 0.0592255
threshold=850.00000000000011 20.450000000000003 23.750000000000004 25.650000000000002 98.87872452500001 26.650000000000002 27.750000000000004 20.350000000000005 108.75000000000001 1.5000000000000002 72.350000000000009 78.500000000000014 21.950000000000003
decision_type=2 2 2 2 2 2 2 2 2 2 2 2 2
left_child=1 -1 7 4 -4 -5 -7 -2 12 10 -3 -12 -9
right_child=2 9 3 5 -6 6 -8 8 -10 -11 11 -13 -14
leaf_value=-0.007270306836636293 -0.0075638298478362892 0.0022527358515395056 -0.0013529562408273871 -0.0067974534879128136 0.015170416417329207 0.0079194482748529745 0.00025111623507026654 -0.0071754875748107827 0.0060488205082300638 0.0042866856946299475 0.00063117783839026316 -0.0084835868239402767 -0.0016117483869194985
leaf_weight=21 29 27 22 30 23 28 246 24 36 24 26 25 25
leaf_count=21 29 27 22 30 23 28 246 24 36 24 26 25 25
internal_value=0 -0.00150123 0.000398815 0.00114255 0.00709232 0.000261827 0.00103474 -0.00187806 6.17897e-05 -0.000313478 -0.00172891 -0.00383684 -0.00433685
internal_weight=0 123 463 349 45 304 274 114 85 102 78 51 49
internal_count=586 123 463 349 45 304 274 114 85 102 78 51 49
is_linear=0
shrinkage=0.08


Tree=73
num_leaves=10
num_cat=0
split_feature=2 2 8 8 0 4 4 0 2
split_gain=0.0542961 0.128964 0.0905075 0.293028 0.477777 0.287799 0.178069 0.15346 0.0698199
threshold=18.650000000000002 19.350000000000005 75.02500000000002 95.820000000000007 64.750000000000014 161.15000000000003 291.80000000000007 61.750000000000007 17.250000000000004
decision_type=2 2 2 2 2 2 2 2 2
left_child=8 -2 5 4 -4 7 -5 -3 -1
right_child=1 2 3 6 -6 -7 -8 -9 -10
leaf_value=0.0011400490598753095 0.0050799136766881657 -0.00031781991598948554 -0.0022468421763430038 -0.00090179143930761816 0.013012498930610459 0.0048832617866609133 0.0065759204768321734 -0.0061288770880888813 -0.0049621848557144408
leaf_weight=20 33 52 24 277 29 33 22 66 30
leaf_count=20 33 52 24 277 29 33 22 66 30
internal_value=0 0.000235195 -8.26493e-05 0.000620205 0.00610261 -0.00172109 -0.000351592 -0.00356807 -0.00252129
internal_weight=0 536 503 352 53 151 299 118 50
internal_count=586 536 503 352 53 151 299 118 50
is_linear=0
shrinkage=0.08


Tree=74
num_leaves=14
num_cat=0
split_feature=4 4 0 0 0 9 8 8 8 0 8 2 0
split_gain=0.0607707 0.376649 0.257448 0.216829 0.338016 0.191663 0.172089 0.16594 0.530404 0.276328 0.261631 0.242575 0.187012
threshold=132.05000000000004 124.15000000000002 370.75000000000006 130.75000000000003 217.00000000000003 144.50000000000003 116.15500000000002 75.02500000000002 95.820000000000007 64.750000000000014 30.810000000000006 20.250000000000004 96.250000000000014
decision_type=2 2 2 2 2 2 2 2 2 2 2 2 2
left_child=1 7 3 5 -5 6 -2 10 9 -9 -1 -10 -12
right_child=2 -3 -4 4 -6 -7 -8 8 11 -11 12 -13 -14
leaf_value=0.0029795886542309416 -0.0049167335008581479 0.0087958240599343273 -0.0094572878096784857 0.008254612649790943 -0.0033300688531663681 0.0053239164762198922 0.0019137299017165789 0.0027379858847707511 -0.0073611949409047766 0.016036480181850492 -0.0027023373122922042 0.00051047021216761915 -0.01156998547522918
leaf_weight=33 90 33 21 40 27 20 32 20 30 20 45 152 23
leaf_count=33 90 33 21 40 27 20 32 20 30 20 45 152 23
internal_value=0 0.000654828 -0.00101356 -0.000165147 0.00358616 -0.00193513 -0.00312514 -0.000176915 0.00104615 0.00938723 -0.00286523 -0.000787057 -0.00570169
internal_weight=0 356 230 209 67 142 122 323 222 40 101 182 68
internal_count=586 356 230 209 67 142 122 323 222 40 101 182 68
is_linear=0
shrinkage=0.08


Tree=75
num_leaves=9
num_cat=0
split_feature=3 8 0 3 6 3 8 8
split_gain=0.0545057 0.0862605 0.108131 0.371666 0.375761 0.167702 0.209967 0.112813
threshold=38.750000000000007 20.895000000000003 104.25000000000001 20.150000000000002 1.0000000180025095e-35 31.350000000000005 104.18580480000001 108.57000000000001
decision_type=2 2 2 2 2 2 2 2
left_child=1 -1 5 -4 -5 7 -7 -3
right_child=-2 2 3 4 -6 6 -8 -9
leaf_value=0.0045056550297886133 0.0032102741301059724 0.0004657246629571224 0.007303566563129426 0.0018148425937397406 -0.0058211042038325616 0.00096737754585988383 0.0093059303359714924 -0.0034511534703161677
leaf_weight=24 32 164 25 64 116 68 27 66
leaf_count=24 32 164 25 64 116 68 27 66
internal_value=0 -0.000185431 -0.000397858 -0.00183663 -0.0031061 0.000509675 0.00333728 -0.000658249
internal_weight=0 554 530 205 180 325 95 230
internal_count=586 554 530 205 180 325 95 230
is_linear=0
shrinkage=0.08


Tree=76
num_leaves=6
num_cat=0
split_feature=4 4 4 4 4
split_gain=0.048945 0.267202 0.210242 0.141281 0.104216
threshold=49.150000000000006 58.600000000000009 64.90000000000002 70.550000000000026 80.90000000000002
decision_type=2 2 2 2 2
left_child=-1 -2 -3 -4 -5
right_child=1 2 3 4 -6
leaf_value=0.0035380000310639543 -0.0087933436019176792 0.0075203517110397425 -0.0067316582873463626 0.0036288323528751048 -0.00025755367617675477
leaf_weight=24 22 24 20 49 447
leaf_count=24 22 24 20 49 447
internal_value=0 -0.000151089 0.000201003 -0.000139432 0.000126384
internal_weight=0 562 540 516 496
internal_count=586 562 540 516 496
is_linear=0
shrinkage=0.08


Tree=77
num_leaves=10
num_cat=0
split_feature=0 5 3 2 3 0 2 1 4
split_gain=0.0493887 0.052693 0.130075 0.152132 0.114423 0.107167 0.159753 0.206519 0.19253
threshold=13.250000000000002 850.00000000000011 22.150000000000002 22.150000000000002 27.450000000000003 475.00000000000006 23.550000000000004 1.0000000180025095e-35 100.55000000000001
decision_type=2 2 2 2 2 2 2 2 2
left_child=-1 2 -2 -4 -5 6 7 -3 -8
right_child=1 5 3 4 -6 -7 8 -9 -10
leaf_value=-0.0033417890358854226 0.0043683631150495438 -0.0034723687779320321 -0.0071988007690637346 -0.0054563837610185151 0.001791713035301022 0.0062849065102636818 0.0012433707520968335 0.0023995690426495656 -0.0045981153088029136
leaf_weight=27 21 46 31 20 46 20 68 230 77
leaf_count=27 21 46 31 20 46 20 68 230 77
internal_value=0 0.00016141 -0.00134014 -0.002576 -0.00040468 0.000563185 0.000291369 0.00142091 -0.00185866
internal_weight=0 559 118 97 66 441 421 276 145
internal_count=586 559 118 97 66 441 421 276 145
is_linear=0
shrinkage=0.08


Tree=78
num_leaves=9
num_cat=0
split_feature=3 8 8 9 4 2 2 7
split_gain=0.043645 0.0737637 0.444664 0.216547 0.195021 0.235672 0.163207 0.146601
threshold=38.750000000000007 95.820000000000007 87.665000000000006 139.50000000000003 320.95000000000005 18.750000000000004 25.050000000000004 1.0000000180025095e-35
decision_type=2 2 2 2 2 2 2 2
left_child=1 2 3 7 5 -3 -7 -1
right_child=-2 4 -4 -5 -6 6 -8 -9
leaf_value=-0.00019561413165373619 0.0028726863744668661 -0.0085584113388149832 0.010583697252527431 0.0065873374849557877 0.0067337764054536823 8.4108390108061335e-05 -0.0052160249616612087 -0.0060012869510267467
leaf_weight=136 32 27 27 25 20 240 44 35
leaf_count=136 32 27 27 25 20 240 44 35
internal_value=0 -0.000165931 0.000958721 -0.000367169 -0.000923627 -0.00141606 -0.000737039 -0.00138391
internal_weight=0 554 223 196 331 311 284 171
internal_count=586 554 223 196 331 311 284 171
is_linear=0
shrinkage=0.08


Tree=79
num_leaves=10
num_cat=0
split_feature=4 4 0 3 3 0 9 0 0
split_gain=0.0469298 0.245553 0.21801 0.220874 0.263219 0.247376 0.166984 0.16202 0.259892
threshold=136.65000000000001 130.15000000000003 370.75000000000006 21.250000000000004 23.750000000000004 45.500000000000007 160.50000000000003 308.75000000000006 104.25000000000001
decision_type=2 2 2 2 2 2 2 2 2
left_child=1 6 3 -2 -5 -6 7 8 -1
right_child=2 -3 -4 4 5 -7 -8 -9 -10
leaf_value=0.0014027366812625738 0.0078630737401545053 0.0089499801964986886 -0.008680269488443932 -0.0087947595329023898 -0.0037758908905088902 0.0028268063696020324 -0.0063967323427399003 0.00557896053728958 -0.0039225446614550383
leaf_weight=206 20 21 21 24 60 92 24 36 82
leaf_count=206 20 21 21 24 60 92 24 36 82
internal_value=0 0.000549013 -0.000933575 -0.000103572 -0.00100887 0.000220479 4.20578e-05 0.000519005 -0.000113489
internal_weight=0 369 217 196 176 152 348 324 288
internal_count=586 369 217 196 176 152 348 324 288
is_linear=0
shrinkage=0.08


Tree=80
num_leaves=6
num_cat=0
split_feature=0 4 4 4 4
split_gain=0.0429567 0.0516154 0.2391 0.172776 0.126639
threshold=13.250000000000002 49.150000000000006 58.600000000000009 64.90000000000002 70.550000000000026
decision_type=2 2 2 2 2
left_child=-1 -2 -3 -4 -5
right_child=1 2 3 4 -6
leaf_value=-0.0031165954470634459 0.0040414785771142872 -0.0083693895369235955 0.0069668827236940472 -0.006219533309340477 0.00027953419925809403
leaf_weight=27 21 21 24 20 473
leaf_count=27 21 21 24 20 473
internal_value=0 0.000150533 -1.34384e-06 0.000338557 1.58803e-05
internal_weight=0 559 538 517 493
internal_count=586 559 538 517 493
is_linear=0
shrinkage=0.08


Tree=81
num_leaves=14
num_cat=0
split_feature=3 3 1 9 8 1 2 3 2 5 0 5 2
split_gain=0.0446446 0.171578 0.249513 0.178509 0.223454 0.20015 0.148541 0.125294 0.182474 0.250299 0.185202 0.174833 0.0683859
threshold=31.350000000000005 29.050000000000004 1.5000000000000002 147.50000000000003 153.04500000000004 1.0000000180025095e-35 22.750000000000004 32.650000000000013 19.650000000000002 1233.6450000000002 64.750000000000014 1025.0000000000002 22.850000000000005
decision_type=2 2 2 2 2 2 2 2 2 2 2 2 2
left_child=1 3 6 4 5 -1 -3 11 -9 10 -10 -2 -6
right_child=7 2 -4 -5 12 -7 -8 8 9 -11 -12 -13 -14
leaf_value=-0.0048567827524883403 0.00017795119296621392 0.0028583550304174424 -0.011265046935351122 -0.004694402571289967 0.0033078044112771748 0.0012428576050140939 -0.0050381813007557112 0.0068909505233168602 -0.001921500391229832 -0.0063600485292928553 0.0058638399297540836 0.0097853642566637557 0.0099234639215283089
leaf_weight=42 27 30 21 39 20 191 31 20 48 42 33 22 20
leaf_count=42 27 30 21 39 20 191 31 20 48 42 33 22 20
internal_value=0 -0.000487448 -0.00374389 0.000368412 0.00109167 0.000143352 -0.00115464 0.00100028 -0.000196002 -0.00134835 0.0012503 0.00449148 0.00661563
internal_weight=0 394 82 312 273 233 61 192 143 123 81 49 40
internal_count=586 394 82 312 273 233 61 192 143 123 81 49 40
is_linear=0
shrinkage=0.08


Tree=82
num_leaves=14
num_cat=0
split_feature=4 4 0 0 4 9 0 9 8 8 4 4 0
split_gain=0.046968 0.31174 0.187126 0.416484 0.302578 0.176241 0.40496 0.143447 0.141677 0.396861 0.230081 0.268149 0.229738
threshold=132.05000000000004 124.15000000000002 217.00000000000003 161.00000000000003 187.25000000000003 126.50000000000001 36.750000000000007 109.50000000000001 75.02500000000002 95.820000000000007 95.750000000000014 80.350000000000009 64.750000000000014
decision_type=2 2 2 2 2 2 2 2 2 2 2 2 2
left_child=1 8 3 5 -4 7 -7 -2 10 12 11 -1 -10
right_child=2 -3 4 -5 -6 6 -8 -9 9 -11 -12 -13 -14
leaf_value=-0.0036935821044429833 -0.00097601021875638565 0.0079820531538941641 -0.011956452053526174 0.010877173184638931 0.00075793246924877168 -0.0049647525085934566 0.010247278377258529 -0.0072114717305609682 0.0021013064025901256 -0.00063661433716053861 -0.0088302959628137091 0.006627752045169473 0.014226983137428761
leaf_weight=49 83 33 23 21 25 21 24 33 20 182 28 24 20
leaf_count=49 83 33 23 21 25 21 24 33 20 182 28 24 20
internal_value=0 0.00057568 -0.000891052 0.000280814 -0.00533438 -0.00110132 0.00314833 -0.00274989 -0.000181009 0.000949108 -0.00266503 -0.000300267 0.00816414
internal_weight=0 356 230 182 48 161 45 116 323 222 101 73 40
internal_count=586 356 230 182 48 161 45 116 323 222 101 73 40
is_linear=0
shrinkage=0.08


Tree=83
num_leaves=14
num_cat=0
split_feature=4 9 5 2 3 4 4 9 9 4 8 8 0
split_gain=0.0437307 0.242841 0.25774 0.131017 0.0986468 0.261554 0.13305 0.307161 0.425579 0.218658 0.153903 0.201218 0.111408
threshold=196.30000000000004 108.50000000000001 1150.0000000000002 23.150000000000002 23.550000000000004 81.550000000000011 122.2 109.50000000000001 95.500000000000014 151.20000000000002 148.01500000000001 75.02500000000002 35.250000000000007
decision_type=2 2 2 2 2 2 2 2 2 2 2 2 2
left_child=4 2 -2 -3 5 -1 10 8 -8 -9 11 -6 -7
right_child=1 3 -4 -5 6 12 7 9 -10 -11 -12 -13 -14
leaf_value=0.0043963015638291839 0.00086300620188315704 0.0065979059666395196 -0.010344631603180334 -0.0015923748195171355 -0.0026814217280737964 0.00045248102086285747 0.0010881286161020399 -0.005236641602324588 0.013576282988632879 0.0052492336835712194 -0.0060844873577356341 0.0023748496731679563 -0.0060284316098991909
leaf_weight=32 24 25 29 25 79 24 40 35 31 20 25 139 58
leaf_count=32 24 25 29 25 79 24 40 35 31 20 25 139 58
internal_value=0 -0.00149654 -0.00526947 0.00250277 0.000319139 -0.00173779 0.000954612 0.00306422 0.0065407 -0.0014236 -0.000139261 0.000542531 -0.00413158
internal_weight=0 103 53 50 483 114 369 126 71 55 243 218 82
internal_count=586 103 53 50 483 114 369 126 71 55 243 218 82
is_linear=0
shrinkage=0.08


Tree=84
num_leaves=8
num_cat=0
split_feature=7 7 4 3 9 5 3
split_gain=0.0433997 0.0705955 0.110273 0.216195 0.204811 0.145716 0.201874
threshold=859.50000000000011 768.50000000000011 196.30000000000004 25.650000000000002 115.50000000000001 2100.0000000000005 18.250000000000004
decision_type=2 2 2 2 2 2 2
left_child=1 2 5 -4 -5 6 -1
right_child=-2 -3 3 4 -6 -7 -8
leaf_value=-0.0073318326811898839 -0.003662499777972698 0.0041213462405182699 0.003300504705735615 -0.0085437578766992903 0.00076143357902765281 0.006957181379908607 0.00053791241875154069
leaf_weight=22 20 27 28 41 24 21 403
leaf_count=22 20 27 28 41 24 21 403
internal_value=0 0.000129417 -7.05498e-05 -0.0025764 -0.00510799 0.000451971 0.000130537
internal_weight=0 566 539 93 65 446 425
internal_count=586 566 539 93 65 446 425
is_linear=0
shrinkage=0.08


Tree=85
num_leaves=8
num_cat=0
split_feature=2 2 2 2 3 3 4
split_gain=0.0424482 0.0978009 0.0922014 0.145035 0.12067 0.0475596 0.0154168
threshold=18.650000000000002 19.350000000000005 20.150000000000002 20.650000000000002 19.750000000000004 27.350000000000005 131.40000000000001
decision_type=2 2 2 2 2 2 2
left_child=5 -2 6 -4 -5 -1 -3
right_child=1 2 3 4 -6 -7 -8
leaf_value=-0.0047973577057321866 0.0044269241008794667 -0.0053243860416114334 0.0051259223488159481 0.0046450379827330194 -0.00053787955575660253 0.00014121706955707989 -0.0021832452863454819
leaf_weight=24 33 20 36 31 396 26 20
leaf_count=24 33 20 36 31 396 26 20
internal_value=0 0.000207957 -6.88341e-05 0.000249523 -0.000161602 -0.0022293 -0.00375382
internal_weight=0 536 503 463 427 50 40
internal_count=586 536 503 463 427 50 40
is_linear=0
shrinkage=0.08


Tree=86
num_leaves=14
num_cat=0
split_feature=3 9 5 0 2 5 0 3 2 0 9 4 4
split_gain=0.0406461 0.0639234 0.260722 0.332696 0.210004 0.382589 0.245604 0.187569 0.308874 0.301558 0.210526 0.253279 0.17865
threshold=39.750000000000007 96.500000000000014 1428.2500000000002 63.750000000000007 22.750000000000004 1025.0000000000002 113.00000000000001 23.350000000000005 22.650000000000002 78.500000000000014 109.50000000000001 101.10000000000001 93.200000000000003
decision_type=2 2 2 2 2 2 2 2 2 2 2 2 2
left_child=1 2 4 -4 5 -1 -6 8 9 -3 11 -9 -12
right_child=-2 7 3 -5 6 -7 -8 10 -10 -11 12 -13 -14
leaf_value=6.2188659940147771e-05 0.0030921330926223446 -0.00048822111490627991 9.6411070165534823e-05 -0.013368178761523703 0.00045407350518201529 0.012738445091992616 -0.00869549295465861 -0.00096061051357537513 0.0029759097384179341 -0.013307245795925458 0.003824881336317872 0.0079328731735024537 -0.0017448718519496524
leaf_weight=64 26 23 24 23 57 20 28 32 34 24 53 57 121
leaf_count=64 26 23 24 23 57 20 28 32 34 24 53 57 121
internal_value=0 -0.000143563 -0.00122221 -0.00649264 0.000243535 0.00308034 -0.0025599 0.000533725 -0.00283237 -0.00703411 0.00157043 0.00473522 -4.83378e-05
internal_weight=0 560 216 47 169 84 85 344 81 47 263 89 174
internal_count=586 560 216 47 169 84 85 344 81 47 263 89 174
is_linear=0
shrinkage=0.08


Tree=87
num_leaves=10
num_cat=0
split_feature=0 5 3 2 5 2 3 3 8
split_gain=0.0381545 0.0483329 0.120088 0.125567 0.106105 0.0875781 0.110779 0.214138 0.165035
threshold=13.250000000000002 850.00000000000011 22.150000000000002 22.150000000000002 702.1350000000001 26.250000000000004 23.350000000000005 25.650000000000002 130.88000000000002
decision_type=2 2 2 2 2 2 2 2 2
left_child=-1 2 -2 -4 -5 6 8 -8 -3
right_child=1 5 3 4 -6 -7 7 -9 -10
leaf_value=-0.002937232765748545 0.0041887570491858893 -0.0032542490364362796 -0.0066835248482323461 0.0038748482355605001 -0.0028569566662055117 -0.0031447162542884289 0.0064627389184066233 0.00069377539951946275 0.0047694247482078416
leaf_weight=27 21 75 31 23 43 38 49 258 21
leaf_count=27 21 75 31 23 43 38 49 258 21
internal_value=0 0.00014187 -0.00129621 -0.00248368 -0.000511025 0.000526663 0.000872847 0.00161455 -0.00149907
internal_weight=0 559 118 97 66 441 403 307 96
internal_count=586 559 118 97 66 441 403 307 96
is_linear=0
shrinkage=0.08


Tree=88
num_leaves=11
num_cat=0
split_feature=8 9 8 2 0 8 2 9 9 4
split_gain=0.0394566 0.205188 0.1696 0.176247 0.132773 0.109677 0.149028 0.1213 0.235611 0.179653
threshold=121.64500000000001 89.500000000000014 167.19500000000002 23.550000000000004 63.750000000000007 102.54833250000001 22.950000000000003 164.00000000000003 147.50000000000003 163.00000000000003
decision_type=2 2 2 2 2 2 2 2 2 2
left_child=5 -2 4 -4 -3 7 -7 8 9 -1
right_child=1 2 3 -5 -6 6 -8 -9 -10 -11
